tree
version=v4
num_class=3
num_tree_per_iteration=3
label_index=0
max_feature_idx=14
objective=multiclass num_class:3
feature_names=Column_0 Column_1 Column_2 Column_3 Column_4 Column_5 Column_6 Column_7 Column_8 Column_9 Column_10 Column_11 Column_12 Column_13 Column_14
feature_infos=[0:2] [17:40] [166:206] [70.5:216] [0:62] [0:42] [0:52] [17:46] [163:206] [69:216] [0:63] [0:56] [0:53] [0:12] [0:9]
tree_sizes=450 551 545 656 549 658 649 652 664 553 547 659 552 550 659 552 550 664 548 549 663 649 552 662 655 549 663 655 656 553 656 653 662 654 656 665 551 551 657 555 552 662 551 648 764 659 658 660 655 647 661 651 652 778 660 551 777 659 660 671 550 653 670 548 655 670 553 657 779 554 655 776 656 658 778 654 659 781 661 651 672 655 658 781 656 653 886 658 656 779 555 551 675 658 549 665 656 552 778 651 650 782 553 552 889 554 649 786 554 554 788 658 558 785 554 651 785 556 551 677 557 552 671 550 553 675 556 553 673 553 550 673 554 552 676 555 657 675 555 657 783 557 559 672 557 660 790 557 662 668 555 554 786 663 767 782 557 656 787 661 657 787 558 662 792 662 660 782 558 662 896 557 663 789 558 561 784 669 554 675 777 765 896 773 776 895 774 661 789 771 562 898 774 771 789 666 662 901 668 770 896 670 662 902 674 664 676 668 667 557 671 664 900 774 558 791 669 662 899 670 666 679 672 664 683 669 666 790 668 665 791 775 770 790 670 559 792 671 668 905 670 774 791 669 664 904 668 775 902 669 665 904 565 559 907 563 664 788 564 662 904 564 560 791 560 558 905 568 665 904 566 782 798 564 677 677 564 672 795 566 671 675 561 676 795 563 567 565 560 672 679 678 891 682 672 674 681 567 894 568 675 784 796 676 892 905 672 783 683 672 668 798 678 790 791 568 677 1018 567 675 1012 573 567 352 677 679 680 568 677 686 677 898 912 568 781 903 569 798 903 679 896 903 573 898 913 892 788 909 679 789 912 689 787 800 789 670 804 686 788 915 679 676 912 782 677 914 679 676 799 679 673 802 676 675 913 686 906 798 689 900 681 792 803 689 689 677 802 795 798 801 683 901 689 791 788 689 689 793 691 691 789 689 689 681 691 688 680 690 790 899 689 793 902 693 689 801 574 790 798 581 577 805 578 688 794 581 687 801 469 684 577 469 687 807 467 681 804 470 689 804 469 692 799 466 685 804 470 686 909 470 689 695 468 688 688 469 693 799 464 695 810 358 684 686 358 688 693 463 801 806 464 802 917 462 683 915 358 692 916 357 685 694 354 576 696 354 686 695 354 576 690 354 574 697 357 684 684 358 690 804 358 576 802 358 574 801 356 693 686 355 578 684 354 573 689 355 573 684 355 463 795 355 466 577 356 574 577 356 575 578 356 354 580 355 354 466 356 353 469 355 356 466 223 354 467 223 353 469 223 353 469 223 354 473 223 354 472 354 358 475 355 355 474 356 355 475 355 358 471 355 362 470 361 353 471 356 354 470 361 355 475 223 355 474 223

Tree=0
num_leaves=3
num_cat=0
split_feature=0 3
split_gain=83.8641 7.10543e-15
threshold=1.5000000000000002 197.00000000000003
decision_type=2 2
left_child=1 -1
right_child=-2 -3
leaf_value=-0.65685115634686297 -0.52162142311525095 -0.65685115634686309
leaf_weight=11.46197631955147 25.142399668693542 9.6132704615592939
leaf_count=31 68 26
internal_value=-0.581229 -0.656851
internal_weight=0 21.0752
internal_count=125 57
is_linear=0
shrinkage=1


Tree=1
num_leaves=4
num_cat=0
split_feature=0 3 1
split_gain=78.9556 0.355051 7.10543e-15
threshold=1.5000000000000002 190.53740702300641 29.500000000000004
decision_type=2 2 2
left_child=1 -1 -2
right_child=2 -3 -4
leaf_value=-0.79950501584677791 -0.92257319358045609 -0.78583077387636924 -0.9225731935804562
leaf_weight=7.3130196332931545 16.819945156574253 13.529086321592329 8.0443215966224653
leaf_count=20 46 37 22
internal_value=-0.864997 -0.790629 -0.922573
internal_weight=0 20.8421 24.8643
internal_count=125 57 68
is_linear=0
shrinkage=1


Tree=2
num_leaves=4
num_cat=0
split_feature=5 7 1
split_gain=1.96027 3.82865 2.22045e-16
threshold=2.5000000000000004 27.500000000000004 27.500000000000004
decision_type=2 2 2
left_child=2 -2 -1
right_child=1 -3 -4
leaf_value=-3.9592727055895836 -3.9592727055895836 -3.7869833642249309 -3.9592727055895836
leaf_weight=1.3059426750987775 0.72552370838820912 0.58041896671056747 1.0157331917434929
leaf_count=45 25 20 35
internal_value=-3.92527 -3.8827 -3.95927
internal_weight=0 1.30594 2.32168
internal_count=125 45 80
is_linear=0
shrinkage=1


Tree=3
num_leaves=5
num_cat=0
split_feature=0 3 5 1
split_gain=73.4409 0.000439475 2.61726e-05 3.55271e-15
threshold=1.5000000000000002 190.53740702300641 1.5000000000000002 23.500000000000004
decision_type=2 2 2 2
left_child=1 -1 3 -2
right_child=2 -3 -4 -5
leaf_value=-0.070170655815981628 0.056727414584616422 -0.069695058587437297 0.056837364198999145 0.056727414584616477
leaf_weight=7.4812858104705837 7.6332471370697084 13.848782062530516 8.0032142400741559 9.0871989727020246
leaf_count=20 21 37 22 25
internal_value=0 -0.0698619 0.056763 0.0567274
internal_weight=0 21.3301 24.7237 16.7204
internal_count=125 57 68 46
is_linear=0
shrinkage=0.05


Tree=4
num_leaves=4
num_cat=0
split_feature=0 7 5
split_gain=68.7167 0.349779 1.00318e-05
threshold=1.5000000000000002 27.500000000000004 1.5000000000000002
decision_type=2 2 2
left_child=1 -1 -2
right_child=2 -3 -4
leaf_value=0.072884801606675736 -0.054960962806442207 0.059433780438274575 -0.054892336856394032
leaf_weight=13.773877888917925 16.467516541481022 7.4456545710563651 7.8703957796096793
leaf_count=37 46 20 22
internal_value=0 0.068165 -0.0549388
internal_weight=0 21.2195 24.3379
internal_count=125 57 68
is_linear=0
shrinkage=0.05


Tree=5
num_leaves=5
num_cat=0
split_feature=0 3 1 14
split_gain=1.30733 4.43299 3.53612e-07 5.05368e-08
threshold=1.5000000000000002 190.53740702300641 29.500000000000004 2.5000000000000004
decision_type=2 2 2 2
left_child=1 -1 3 -2
right_child=2 -3 -4 -5
leaf_value=0.13725612889834324 -0.03397497643506512 -0.034005155178452429 -0.034029208296826499 -0.033994797569870609
leaf_weight=0.5838814713060857 0.69483811967074849 1.0708006992936132 0.65639029629528534 0.59864160418510437
leaf_count=20 25 37 22 21
internal_value=0 0.0264272 -0.0339993 -0.0339841
internal_weight=0 1.65468 1.94987 1.29348
internal_count=125 57 68 46
is_linear=0
shrinkage=0.05


Tree=6
num_leaves=5
num_cat=0
split_feature=9 7 7 5
split_gain=16.2645 11.0988 3.63392 1.10622
threshold=200.20731707317051 24.500000000000004 28.500000000000004 1.0000000180025095e-35
decision_type=2 2 2 2
left_child=1 -1 -2 -3
right_child=2 3 -4 -5
leaf_value=-0.022387635212655865 -0.065085767040534842 0.054275501701974364 -0.017895757025783866 0.030320816342305323
leaf_weight=9.9260905086994189 8.2451072335243243 9.9527246952056903 8.0749598741531354 9.3444462716579419
leaf_count=27 22 28 22 26
internal_value=0 0.020576 -0.0417368 0.0426757
internal_weight=0 29.2233 16.3201 19.2972
internal_count=125 81 44 54
is_linear=0
shrinkage=0.05


Tree=7
num_leaves=5
num_cat=0
split_feature=11 9 9 12
split_gain=18.3227 12.1883 3.13722 0.321806
threshold=1.0000000180025095e-35 200.20731707317051 200.20731707317051 10.500000000000002
decision_type=2 2 2 2
left_child=2 3 -1 -2
right_child=1 -3 -4 -5
leaf_value=0.021784754272788205 -0.053526853736781115 0.02599235288935178 0.062668034822615709 -0.039795069459635263
leaf_weight=10.932271540164949 10.861712902784353 8.0373132228851301 8.2210471928119642 7.0267431735992423
leaf_count=30 31 22 22 20
internal_value=0 -0.0251531 0.0393328 -0.0481329
internal_weight=0 25.9258 19.1533 17.8885
internal_count=125 73 52 51
is_linear=0
shrinkage=0.05


Tree=8
num_leaves=5
num_cat=0
split_feature=5 11 0 1
split_gain=1.77468 3.74846 7.27624e-07 5.91749e-14
threshold=2.5000000000000004 1.0000000180025095e-35 1.5000000000000002 26.500000000000004
decision_type=2 2 2 2
left_child=2 -2 -1 -4
right_child=1 -3 3 -5
leaf_value=-0.034004571696035546 -0.034032049974789189 0.13216444335189995 -0.033945266258498717 -0.033945245017459401
leaf_weight=0.83639142662286814 0.77817516587674596 0.60153091512620449 0.79659393802285194 0.5575968399643898
leaf_count=29 26 19 30 21
internal_value=0 0.0384271 -0.0339679 -0.0339453
internal_weight=0 1.37971 2.19058 1.35419
internal_count=125 45 80 51
is_linear=0
shrinkage=0.05


Tree=9
num_leaves=4
num_cat=0
split_feature=0 9 5
split_gain=61.1852 0.0103927 0.00189524
threshold=1.5000000000000002 200.20731707317051 1.0000000180025095e-35
decision_type=2 2 2
left_child=1 -1 -2
right_child=2 -3 -4
leaf_value=-0.064643017323064253 0.052900261205514165 -0.062374989646742166 0.053792489572243932
leaf_weight=8.2371847629547137 12.576268911361696 13.057801425456999 11.299447029829023
leaf_count=22 36 35 32
internal_value=0 -0.0632523 0.0533225
internal_weight=0 21.295 23.8757
internal_count=125 57 68
is_linear=0
shrinkage=0.05


Tree=10
num_leaves=4
num_cat=0
split_feature=0 12 11
split_gain=56.8722 0.269874 0.00190237
threshold=1.5000000000000002 10.500000000000002 3.5000000000000004
decision_type=2 2 2
left_child=1 -1 -2
right_child=2 -3 -4
leaf_value=0.054263152154278828 -0.05218686620961021 0.065722182642081559 -0.051277537138279927
leaf_weight=8.6118178665637988 13.136975795030596 12.738268136978148 10.231049805879591
leaf_count=23 38 34 30
internal_value=0 0.0611 -0.0517887
internal_weight=0 21.3501 23.368
internal_count=125 57 68
is_linear=0
shrinkage=0.05


Tree=11
num_leaves=5
num_cat=0
split_feature=7 5 5 0
split_gain=1.86637 4.36917 1.68566e-06 5.81323e-07
threshold=30.500000000000004 1.5000000000000002 2.5000000000000004 1.5000000000000002
decision_type=2 2 2 2
left_child=2 -2 3 -1
right_child=1 -3 -4 -5
leaf_value=-0.033990157563590744 -0.033921999087298975 0.1502590424212227 -0.034045749823826542 -0.033920671676792837
leaf_weight=0.64935228973627157 0.7926569916307924 0.54228252358734608 0.99682670645415772 0.56107927300035954
leaf_count=23 31 16 33 22
internal_value=0 0.0408965 -0.0339976 -0.0339579
internal_weight=0 1.33494 2.20726 1.21043
internal_count=125 47 78 45
is_linear=0
shrinkage=0.05


Tree=12
num_leaves=4
num_cat=0
split_feature=0 8 4
split_gain=54.6591 0.00797164 0.00153738
threshold=1.5000000000000002 191.50000000000003 16.500000000000004
decision_type=2 2 2
left_child=1 -1 -2
right_child=2 -3 -4
leaf_value=-0.061052519767902505 0.051022319957891152 -0.059056923030192644 0.051841192095711197
leaf_weight=8.1751190125942248 12.901400297880175 12.902168929576872 10.314063638448713
leaf_count=22 38 35 30
internal_value=0 -0.0598309 0.0513861
internal_weight=0 21.0773 23.2155
internal_count=125 57 68
is_linear=0
shrinkage=0.05


Tree=13
num_leaves=4
num_cat=0
split_feature=0 12 11
split_gain=50.4571 0.255925 0.00151172
threshold=1.5000000000000002 10.500000000000002 3.5000000000000004
decision_type=2 2 2
left_child=1 -1 -2
right_child=2 -3 -4
leaf_value=0.050671646833753019 -0.050330354084219001 0.061860412307033256 -0.049506428149792343
leaf_weight=8.5694760084152239 12.732263475656511 12.662850767374037 9.892779737710951
leaf_count=23 38 34 30
internal_value=0 0.0573446 -0.0499701
internal_weight=0 21.2323 22.625
internal_count=125 57 68
is_linear=0
shrinkage=0.05


Tree=14
num_leaves=5
num_cat=0
split_feature=7 9 5 0
split_gain=1.76048 3.63151 1.53996e-06 6.45963e-07
threshold=30.500000000000004 192.54532216963963 2.5000000000000004 1.5000000000000002
decision_type=2 2 2 2
left_child=2 -2 3 -1
right_child=1 -3 -4 -5
leaf_value=-0.033966675289325975 0.12950924935368141 -0.03402288995603208 -0.034017849028703744 -0.033891853251666645
leaf_weight=0.62673151306808061 0.61116318590939023 0.76370225287973881 0.95915082283318032 0.53445076197385788
leaf_count=23 20 27 33 22
internal_value=0 0.0386714 -0.033971 -0.0339322
internal_weight=0 1.37487 2.12033 1.16118
internal_count=125 47 78 45
is_linear=0
shrinkage=0.05


Tree=15
num_leaves=4
num_cat=0
split_feature=0 14 4
split_gain=47.5547 0.00352367 0.00190798
threshold=1.5000000000000002 2.5000000000000004 16.500000000000004
decision_type=2 2 2
left_child=1 -1 -2
right_child=2 -3 -4
leaf_value=-0.056261839507936173 0.049353379801585183 -0.057619535470706779 0.05027391390941488
leaf_weight=10.497967690229418 12.814916342496874 8.7722791135311109 10.038482487201689
leaf_count=29 39 24 30
internal_value=0 -0.0568799 0.0497577
internal_weight=0 19.2702 22.8534
internal_count=122 53 69
is_linear=0
shrinkage=0.05


Tree=16
num_leaves=4
num_cat=0
split_feature=0 3 11
split_gain=43.275 0.248793 0.00138124
threshold=1.5000000000000002 192.00000000000003 2.5000000000000004
decision_type=2 2 2
left_child=1 -1 -2
right_child=2 -3 -4
leaf_value=0.046479390747258292 -0.048829573364886643 0.058119747724714226 -0.048039712732934101
leaf_weight=7.3953334093093899 10.705944031476976 12.102388381958006 11.459185212850569
leaf_count=20 33 33 36
internal_value=0 0.0537047 -0.0484212
internal_weight=0 19.4977 22.1651
internal_count=122 53 69
is_linear=0
shrinkage=0.05


Tree=17
num_leaves=5
num_cat=0
split_feature=7 11 5 3
split_gain=1.66107 3.55104 1.24141e-06 6.9509e-07
threshold=30.500000000000004 3.5000000000000004 1.0000000180025095e-35 192.00000000000003
decision_type=2 2 2 2
left_child=2 -2 -1 -4
right_child=1 -3 3 -5
leaf_value=-0.033877757250056831 0.12602723799850116 -0.034074086282287731 -0.034001344944574678 -0.033931117867292436
leaf_weight=0.5661912523210052 0.62433512322604634 0.77784032560884953 0.68850356526672818 0.72166892886161804
leaf_count=24 20 26 24 28
internal_value=0 0.0372129 -0.0339403 -0.0339654
internal_weight=0 1.40218 1.97636 1.41017
internal_count=122 46 76 52
is_linear=0
shrinkage=0.05


Tree=18
num_leaves=4
num_cat=0
split_feature=0 8 4
split_gain=42.9225 0.00467867 0.00157823
threshold=1.5000000000000002 191.50000000000003 16.500000000000004
decision_type=2 2 2
left_child=1 -1 -2
right_child=2 -3 -4
leaf_value=-0.055459413156916118 0.04788799571084814 -0.053837831095035163 0.048739674657669561
leaf_weight=7.1887999773025539 12.36542057991028 11.667983323335646 9.7116090357303602
leaf_count=20 39 33 30
internal_value=0 -0.054456 0.0482626
internal_weight=0 18.8568 22.077
internal_count=122 53 69
is_linear=0
shrinkage=0.05


Tree=19
num_leaves=4
num_cat=0
split_feature=0 3 11
split_gain=38.8105 0.248636 0.00100875
threshold=1.5000000000000002 192.00000000000003 2.5000000000000004
decision_type=2 2 2
left_child=1 -1 -2
right_child=2 -3 -4
leaf_value=0.043751555552903984 -0.047385867452565969 0.0554823302785733 -0.046697763033028784
leaf_weight=7.2932261228561428 10.308242559432985 11.866308093070982 11.020199567079542
leaf_count=20 33 33 36
internal_value=0 0.0510169 -0.0470303
internal_weight=0 19.1595 21.3284
internal_count=122 53 69
is_linear=0
shrinkage=0.05


Tree=20
num_leaves=5
num_cat=0
split_feature=7 3 5 3
split_gain=1.57622 3.08017 1.15984e-06 6.61828e-07
threshold=30.500000000000004 190.53740702300641 1.0000000180025095e-35 192.00000000000003
decision_type=2 2 2 2
left_child=2 -2 -1 -4
right_child=1 -3 3 -5
leaf_value=-0.033851030195273184 0.11272057688811242 -0.034046576828241561 -0.033973554779359399 -0.033903531193801871
leaf_weight=0.53883513994514975 0.68047610297799088 0.75314231030642986 0.6608037222176788 0.68956888094544411
leaf_count=24 20 26 24 28
internal_value=0 0.0356174 -0.033913 -0.0339378
internal_weight=0 1.43362 1.88921 1.35037
internal_count=122 46 76 52
is_linear=0
shrinkage=0.05


Tree=21
num_leaves=5
num_cat=0
split_feature=7 9 2 5
split_gain=11.2552 6.8932 1.62147 0.277047
threshold=24.500000000000004 200.20731707317051 186.00000000000003 1.0000000180025095e-35
decision_type=2 2 2 2
left_child=2 3 -1 -2
right_child=1 -3 -4 -5
leaf_value=-0.01504037369744058 0.046353457765119122 -0.016233122223961147 -0.048186695736275029 0.03344679326046323
leaf_weight=6.6730161607265464 8.4803726673126274 8.0934959053993207 8.2524668574333173 8.1571980416774732
leaf_count=20 28 24 24 26
internal_value=0 0.0216143 -0.0333673 0.0400255
internal_weight=0 24.7311 14.9255 16.6376
internal_count=122 78 44 54
is_linear=0
shrinkage=0.05


Tree=22
num_leaves=4
num_cat=0
split_feature=0 7 11
split_gain=34.9108 0.256891 0.000827894
threshold=1.5000000000000002 23.500000000000004 2.5000000000000004
decision_type=2 2 2
left_child=1 -1 -2
right_child=2 -3 -4
leaf_value=0.053607898736892083 -0.046127219187079703 0.041735602205358775 -0.045490873913287412
leaf_weight=10.922944039106371 9.9029945731163043 7.8172463774681082 10.563418686389921
leaf_count=31 33 22 36
internal_value=0 0.0486555 -0.0457988
internal_weight=0 18.7402 20.4664
internal_count=122 53 69
is_linear=0
shrinkage=0.05


Tree=23
num_leaves=5
num_cat=0
split_feature=0 8 11 10
split_gain=1.54429 3.76568 4.83956e-06 1.23852e-06
threshold=1.5000000000000002 191.50000000000003 6.5000000000000009 18.500000000000004
decision_type=2 2 2 2
left_child=1 -1 3 -2
right_child=2 -3 -4 -5
leaf_value=0.12957250918658178 -0.03386827188712687 -0.033932781877359916 -0.034088547347406219 -0.033974153156599067
leaf_weight=0.61057273298501968 0.54779774509370305 0.83198577351868153 0.71582002937793743 0.55703163333237171
leaf_count=20 24 33 24 21
internal_value=0 0.0352719 -0.0339873 -0.0339217
internal_weight=0 1.44256 1.82065 1.10483
internal_count=122 53 69 45
is_linear=0
shrinkage=0.05


Tree=24
num_leaves=5
num_cat=0
split_feature=0 3 5 11
split_gain=36.2227 0.00401305 0.00182556 0.000393028
threshold=1.5000000000000002 192.00000000000003 2.5000000000000004 3.5000000000000004
decision_type=2 2 2 2
left_child=1 -1 3 -2
right_child=2 -3 -4 -5
leaf_value=-0.051977855689017666 0.046011978401891147 -0.050441033241609361 0.04676678448604131 0.045485910791664481
leaf_weight=6.8868156969547298 7.1643991470336932 11.085330992937086 6.4287726283073416 7.038404256105423
leaf_count=20 24 33 21 24
internal_value=0 -0.0510299 0.0460677 0.0457513
internal_weight=0 17.9721 20.6316 14.2028
internal_count=122 53 69 48
is_linear=0
shrinkage=0.05


Tree=25
num_leaves=4
num_cat=0
split_feature=0 8 11
split_gain=32.383 0.250213 0.00103475
threshold=1.5000000000000002 191.50000000000003 2.5000000000000004
decision_type=2 2 2
left_child=1 -1 -2
right_child=2 -3 -4
leaf_value=0.039760529842209354 -0.045367649891840396 0.051756202241340692 -0.044644451643484739
leaf_weight=7.051821947097781 9.6107755601406115 11.333936691284178 10.190533190965651
leaf_count=20 33 33 36
internal_value=0 0.0471553 -0.0449955
internal_weight=0 18.3858 19.8013
internal_count=122 53 69
is_linear=0
shrinkage=0.05


Tree=26
num_leaves=5
num_cat=0
split_feature=7 9 5 8
split_gain=1.56262 2.60316 1.68412e-06 1.29293e-06
threshold=30.500000000000004 192.54532216963963 1.0000000180025095e-35 191.50000000000003
decision_type=2 2 2 2
left_child=2 -2 -1 -4
right_child=1 -3 3 -5
leaf_value=-0.033812295293733474 0.10154970989524043 -0.034008863202100746 -0.033963290320760973 -0.033862387020923014
leaf_weight=0.49462429061532054 0.73593950644135453 0.6826601680368185 0.75181175768375375 0.54952272772789001
leaf_count=24 21 25 28 24
internal_value=0 0.0363161 -0.0338908 -0.0339207
internal_weight=0 1.4186 1.79596 1.30133
internal_count=122 46 76 52
is_linear=0
shrinkage=0.05


Tree=27
num_leaves=5
num_cat=0
split_feature=0 8 5 8
split_gain=33.0414 0.00376405 0.00143007 0.000485415
threshold=1.5000000000000002 197.00000000000003 2.5000000000000004 186.50000000000003
decision_type=2 2 2 2
left_child=1 -1 3 -2
right_child=2 -3 -4 -5
leaf_value=-0.050120365507464029 0.044427943207241666 -0.048649116929899185 0.045634306697729554 0.045025002066608852
leaf_weight=9.0062850117683428 7.0202234387397784 8.4039168059825879 6.182445526123046 6.6090902090072632
leaf_count=27 25 26 21 23
internal_value=0 -0.0494102 0.0450036 0.0447175
internal_weight=0 17.4102 19.8118 13.6293
internal_count=122 53 69 48
is_linear=0
shrinkage=0.05


Tree=28
num_leaves=5
num_cat=0
split_feature=0 8 9 7
split_gain=29.2817 0.254915 0.000794452 0.000974911
threshold=1.5000000000000002 191.50000000000003 192.54532216963963 29.500000000000004
decision_type=2 2 2 2
left_child=1 -1 3 -2
right_child=2 -3 -4 -5
leaf_value=0.037708807132300015 -0.044204309886066773 0.049977623318500787 -0.044458295685253182 -0.043330396577577424
leaf_weight=6.8906489014625576 6.3779333531856555 10.980548083782194 6.1632208228111258 6.3872963786125183
leaf_count=20 23 33 22 24
internal_value=0 0.0452471 -0.0439921 -0.043767
internal_weight=0 17.8712 18.9285 12.7652
internal_count=122 53 69 47
is_linear=0
shrinkage=0.05


Tree=29
num_leaves=4
num_cat=0
split_feature=0 7 7
split_gain=1.54487 4.22396 1.02662e-05
threshold=1.5000000000000002 24.500000000000004 30.500000000000004
decision_type=2 2 2
left_child=1 -1 -2
right_child=2 -3 -4
leaf_value=-0.033907699354824551 -0.033808092460411256 0.14227329747119832 -0.034060873473095749
leaf_weight=0.85268025659024715 0.63209732249379169 0.56605148501694202 1.1017767488956449
leaf_count=35 31 18 38
internal_value=0 0.0363857 -0.0339687
internal_weight=0 1.41873 1.73387
internal_count=122 53 69
is_linear=0
shrinkage=0.05


Tree=30
num_leaves=5
num_cat=0
split_feature=0 8 5 13
split_gain=28.6743 0.00514668 0.000950211 0.000251642
threshold=1.5000000000000002 191.50000000000003 1.5000000000000002 4.5000000000000009
decision_type=2 2 2 2
left_child=1 -1 3 -2
right_child=2 -3 -4 -5
leaf_value=-0.049120146625455913 0.043874602469045343 -0.047277793107574843 0.044429803820201987 0.043422661246159823
leaf_weight=6.5296812355518332 6.822597950696947 9.037046939134596 6.1632718443870536 5.6149069666862488
leaf_count=20 25 29 22 21
internal_value=0 -0.0480506 0.0439221 0.0436706
internal_weight=0 15.5667 18.6008 12.4375
internal_count=117 49 68 46
is_linear=0
shrinkage=0.05


Tree=31
num_leaves=5
num_cat=0
split_feature=0 8 8 7
split_gain=23.3767 0.585039 0.000651773 9.17543e-05
threshold=1.5000000000000002 191.50000000000003 188.14240506329116 30.500000000000004
decision_type=2 2 2 2
left_child=1 -1 3 -2
right_child=2 -3 -4 -5
leaf_value=0.029060068256529306 -0.04292963985748887 0.048381414716804821 -0.043430782804571383 -0.0426483016292626
leaf_weight=6.7658990621566799 5.9773820042610186 9.3074764013290388 6.1249155998229972 5.6255721747875214
leaf_count=20 23 29 23 22
internal_value=0 0.0402483 -0.0430135 -0.0427932
internal_weight=0 16.0734 17.7279 11.603
internal_count=117 49 68 45
is_linear=0
shrinkage=0.05


Tree=32
num_leaves=5
num_cat=0
split_feature=3 10 5 2
split_gain=3.97249 1.45545 3.40534e-06 1.26108e-06
threshold=184.00000000000003 2.5000000000000004 1.5000000000000002 190.50000000000003
decision_type=2 2 2 2
left_child=-1 -2 3 -3
right_child=1 2 -4 -5
leaf_value=0.12944510791857403 0.059636927760829621 -0.033922857077782885 -0.033994294790950196 -0.033802714626366123
leaf_weight=0.60974646359682116 0.53284361213445697 0.41528481245040882 1.0127472132444379 0.46074735000729561
leaf_count=18 21 17 38 23
internal_value=0 -0.0133434 -0.0339319 -0.0338597
internal_weight=0 2.42162 1.88878 0.876032
internal_count=117 99 78 40
is_linear=0
shrinkage=0.05


Tree=33
num_leaves=5
num_cat=0
split_feature=0 8 5 13
split_gain=26.3399 0.00529001 0.000766139 0.000188466
threshold=1.5000000000000002 191.50000000000003 1.5000000000000002 4.5000000000000009
decision_type=2 2 2 2
left_child=1 -1 3 -2
right_child=2 -3 -4 -5
leaf_value=-0.047924384616082095 0.043033946806584261 -0.046024435540762548 0.043550079089676848 0.042633984275503321
leaf_weight=6.3402671515941611 6.5254653543233889 8.6782393455505353 5.906114161014556 5.3684466332197189
leaf_count=20 25 29 22 21
internal_value=0 -0.0468265 0.0430846 0.0428534
internal_weight=0 15.0185 17.8 11.8939
internal_count=117 49 68 46
is_linear=0
shrinkage=0.05


Tree=34
num_leaves=5
num_cat=0
split_feature=0 3 8 7
split_gain=21.2014 0.606136 0.000518209 6.86199e-05
threshold=1.5000000000000002 190.53740702300641 188.14240506329116 30.500000000000004
decision_type=2 2 2 2
left_child=1 -1 3 -2
right_child=2 -3 -4 -5
leaf_value=0.027152206797313061 -0.042132756514046188 0.047118841463827915 -0.042594263006395794 -0.041883371610976078
leaf_weight=6.586638629436492 5.6901346892118472 8.9875770807266218 5.8388731479644767 5.3535303026437759
leaf_count=20 23 29 23 22
internal_value=0 0.0386746 -0.0422133 -0.0420119
internal_weight=0 15.5742 16.8825 11.0437
internal_count=117 49 68 45
is_linear=0
shrinkage=0.05


Tree=35
num_leaves=5
num_cat=0
split_feature=12 8 7 8
split_gain=3.61884 1.58914 9.73322e-06 8.37436e-07
threshold=1.0000000180025095e-35 178.50000000000003 33.500000000000007 189.64240506329116
decision_type=2 2 2 2
left_child=-1 -2 3 -3
right_child=1 2 -4 -5
leaf_value=0.12049110582974283 0.066780959619107558 -0.033904837826612577 -0.034095385250299953 -0.033821111861362337
leaf_weight=0.64497837983071837 0.49419731833040748 0.54264024272561051 0.67910869978368271 0.66423403285443783
leaf_count=22 17 23 23 32
internal_value=0 -0.0130304 -0.033944 -0.0338588
internal_weight=0 2.38018 1.88598 1.20687
internal_count=117 95 78 55
is_linear=0
shrinkage=0.05


Tree=36
num_leaves=4
num_cat=0
split_feature=8 5 6
split_gain=5.67735 3.32348 1.67776
threshold=197.00000000000003 1.0000000180025095e-35 13.625000000000002
decision_type=2 2 2
left_child=1 -1 -3
right_child=-2 2 -4
leaf_value=0.036386630474121329 -0.035549426261664567 -0.016126017186178909 0.018932744119527209
leaf_weight=9.7278457283973747 7.6708140373229972 8.2488192766904813 5.8204514086246482
leaf_count=39 27 29 22
internal_value=0 0.0139151 -0.00162222
internal_weight=0 23.7971 14.0693
internal_count=117 90 51
is_linear=0
shrinkage=0.05


Tree=37
num_leaves=4
num_cat=0
split_feature=0 3 11
split_gain=19.2666 0.609637 0.000393049
threshold=1.5000000000000002 190.53740702300641 2.5000000000000004
decision_type=2 2 2
left_child=1 -1 -2
right_child=2 -3 -4
leaf_value=0.025573630304134953 -0.041758646086285968 0.045909023488448553 -0.041262611932799786
leaf_weight=6.4297295808792141 7.4594798535108593 8.6355668008327466 8.595210909843443
leaf_count=20 31 29 37
internal_value=0 0.0372301 -0.0414931
internal_weight=0 15.0653 16.0547
internal_count=117 49 68
is_linear=0
shrinkage=0.05


Tree=38
num_leaves=5
num_cat=0
split_feature=5 7 3 2
split_gain=3.35209 5.82043 2.95383e-06 6.71377e-07
threshold=2.5000000000000004 30.500000000000004 190.53740702300641 178.50000000000003
decision_type=2 2 2 2
left_child=2 -2 3 -1
right_child=1 -3 -4 -5
leaf_value=-0.033881367282004707 -0.033869417913122507 0.16939837890557666 -0.033780069389735844 -0.033963356687933523
leaf_weight=0.529641352593899 0.67773655615746953 0.73313740082085133 0.60449547786265601 0.47236854117363691
leaf_count=23 30 14 32 18
internal_value=0 0.0717553 -0.0338674 -0.03392
internal_weight=0 1.41087 1.60651 1.00201
internal_count=117 44 73 41
is_linear=0
shrinkage=0.05


Tree=39
num_leaves=4
num_cat=0
split_feature=0 8 5
split_gain=22.9244 0.00658032 0.00137239
threshold=1.5000000000000002 191.50000000000003 1.0000000180025095e-35
decision_type=2 2 2
left_child=1 -1 -2
right_child=2 -3 -4
leaf_value=-0.04633747710598967 0.041417012387220245 -0.044152935528223303 0.042332143782831233
leaf_weight=6.0379648506641415 8.6966223269701022 8.0339466333389264 7.7457736879587165
leaf_count=20 37 29 31
internal_value=0 -0.0450903 0.0418481
internal_weight=0 14.0719 16.4424
internal_count=117 49 68
is_linear=0
shrinkage=0.05


Tree=40
num_leaves=4
num_cat=0
split_feature=0 3 5
split_gain=18.0349 0.58402 0.000542867
threshold=1.5000000000000002 190.53740702300641 1.0000000180025095e-35
decision_type=2 2 2
left_child=1 -1 -2
right_child=2 -3 -4
leaf_value=0.024919336556129226 -0.040740348457020903 0.04504244033553044 -0.041334286885698471
leaf_weight=6.3477695882320413 8.2318471074104291 8.3465189039707166 7.223017394542695
leaf_count=20 37 29 31
internal_value=0 0.0363495 -0.0410179
internal_weight=0 14.6943 15.4549
internal_count=117 49 68
is_linear=0
shrinkage=0.05


Tree=41
num_leaves=5
num_cat=0
split_feature=0 7 5 7
split_gain=3.27023 8.99872 2.21536e-05 1.67878e-06
threshold=1.5000000000000002 29.500000000000004 2.5000000000000004 33.500000000000007
decision_type=2 2 2 2
left_child=1 -1 3 -2
right_child=2 -3 -4 -5
leaf_value=-0.033852752148913923 -0.033763003460709255 0.22133672179785796 -0.034199386163808118 -0.033896673644328155
leaf_weight=0.84757301211357117 0.58305178862065077 0.58313542790710926 0.61806617490947247 0.39336205925792456
leaf_count=39 32 10 19 17
internal_value=0 0.0701587 -0.0339651 -0.0338169
internal_weight=0 1.43071 1.59448 0.976414
internal_count=117 49 68 49
is_linear=0
shrinkage=0.05


Tree=42
num_leaves=4
num_cat=0
split_feature=11 9 5
split_gain=6.02319 2.29834 2.46551
threshold=3.5000000000000004 200.20731707317051 1.0000000180025095e-35
decision_type=2 2 2
left_child=1 2 -1
right_child=-2 -3 -4
leaf_value=0.030061014169374758 0.04102682811829745 -0.030928439036566627 -0.015013786705816155
leaf_weight=4.8790531456470552 7.2812463492155066 8.9622198045253736 8.0213018357753736
leaf_count=21 32 34 30
internal_value=0 -0.0114784 0.00203399
internal_weight=0 21.8626 12.9004
internal_count=117 85 51
is_linear=0
shrinkage=0.05


Tree=43
num_leaves=5
num_cat=0
split_feature=7 9 12 7
split_gain=8.10849 4.80114 0.705739 0.17752
threshold=24.500000000000004 200.20731707317051 6.5000000000000009 30.500000000000004
decision_type=2 2 2 2
left_child=2 3 -1 -2
right_child=1 -3 -4 -5
leaf_value=0.016237495852605966 -0.034285908695165755 0.016118468446729598 0.041105814303394966 -0.046525498333345398
leaf_weight=5.3809476941823977 4.9509350955486315 5.0884717702865592 6.0725319236516953 7.3760566711425781
leaf_count=20 23 19 22 33
internal_value=0 -0.0247426 0.0294225 -0.0416097
internal_weight=0 17.4155 11.4535 12.327
internal_count=117 75 42 56
is_linear=0
shrinkage=0.05


Tree=44
num_leaves=6
num_cat=0
split_feature=0 7 5 3 7
split_gain=2.91613 8.12174 1.85371e-05 3.44172e-06 1.39313e-06
threshold=1.5000000000000002 30.500000000000004 2.5000000000000004 190.53740702300641 33.500000000000007
decision_type=2 2 2 2 2
left_child=1 3 4 -1 -2
right_child=2 -3 -4 -5 -6
leaf_value=-0.033953938459123076 -0.033737902869328325 0.20151876876729796 -0.034148651734468669 -0.03375583256887333 -0.033863316675688246
leaf_weight=0.44505531340837479 0.54975557886064053 0.62952599301934242 0.58347479812800884 0.43209683615714312 0.37077395245432854
leaf_count=17 32 8 19 24 17
internal_value=0 0.064489 -0.0339282 -0.0338563 -0.0337884
internal_weight=0 1.50668 1.504 0.877152 0.92053
internal_count=117 49 68 41 49
is_linear=0
shrinkage=0.05


Tree=45
num_leaves=5
num_cat=0
split_feature=0 9 5 4
split_gain=21.7363 0.00746203 0.00244228 7.14377e-05
threshold=1.5000000000000002 200.20731707317051 1.0000000180025095e-35 5.5000000000000009
decision_type=2 2 2 2
left_child=1 -1 3 -2
right_child=2 -3 -4 -5
leaf_value=-0.045089900799992172 0.040576077891620488 -0.042798177248660613 0.041707993012752714 0.040288265671137503
leaf_weight=5.7553988099098214 4.3601531982421857 9.2780075520277006 6.6673117578029641 4.264901265501976
leaf_count=20 20 36 28 20
internal_value=0 -0.0436755 0.0409893 0.0404338
internal_weight=0 15.0334 15.2924 8.62505
internal_count=124 56 68 40
is_linear=0
shrinkage=0.05


Tree=46
num_leaves=5
num_cat=0
split_feature=0 7 5 8
split_gain=17.5154 0.723952 0.00146484 0.00021145
threshold=1.5000000000000002 24.500000000000004 1.0000000180025095e-35 183.50000000000003
decision_type=2 2 2 2
left_child=1 -1 3 -2
right_child=2 -3 -4 -5
leaf_value=0.044163344830508711 -0.039607840770777232 0.022094036855850784 -0.040885667328254119 -0.040117115719111245
leaf_weight=9.8944343924522382 3.9879531413316709 5.9509016275405893 6.2447094172239312 4.1687700301408768
leaf_count=36 20 20 28 20
internal_value=0 0.035875 -0.0403093 -0.0398681
internal_weight=0 15.8453 14.4014 8.15672
internal_count=124 56 68 40
is_linear=0
shrinkage=0.05


Tree=47
num_leaves=5
num_cat=0
split_feature=3 7 7 9
split_gain=3.09633 1.65503 9.91665e-06 9.36477e-07
threshold=184.00000000000003 37.500000000000007 29.500000000000004 202.50000000000003
decision_type=2 2 2 2
left_child=-1 2 3 -2
right_child=1 -3 -4 -5
leaf_value=0.10582376175295492 -0.033804792637328725 0.070804482568872965 -0.034001861470668159 -0.03370778688495079
leaf_weight=0.70231404155492816 0.75404780730605148 0.46893283631652583 0.81429444905370463 0.37130650226026773
leaf_count=16 38 13 34 23
internal_value=0 -0.0134898 -0.033869 -0.0337728
internal_weight=0 2.40858 1.93965 1.12535
internal_count=124 108 95 61
is_linear=0
shrinkage=0.05


Tree=48
num_leaves=5
num_cat=0
split_feature=0 3 5 4
split_gain=20.0981 0.00368141 0.00197654 4.95284e-05
threshold=1.5000000000000002 190.53740702300641 1.0000000180025095e-35 5.5000000000000009
decision_type=2 2 2 2
left_child=1 -1 3 -2
right_child=2 -3 -4 -5
leaf_value=-0.043877693462596401 0.040031113206707283 -0.0422433911905956 0.041084158181353893 0.03978530760424337
leaf_weight=5.7110675871372232 4.1421581208705884 8.687310725450514 6.3588632196187982 4.0560391545295715
leaf_count=21 20 35 28 20
internal_value=0 -0.0428916 0.0404226 0.0399095
internal_weight=0 14.3984 14.5571 8.1982
internal_count=124 56 68 40
is_linear=0
shrinkage=0.05


Tree=49
num_leaves=5
num_cat=0
split_feature=7 9 8 12
split_gain=6.46752 4.2168 0.695143 0.396521
threshold=24.500000000000004 200.20731707317051 197.00000000000003 10.500000000000002
decision_type=2 2 2 2
left_child=2 3 -1 -2
right_child=1 -3 -4 -5
leaf_value=0.017474946621627817 -0.045588213802987429 0.012690958550246732 0.04222891742878139 -0.026015583975405959
leaf_weight=6.2018343955278414 6.9315938055515307 6.4081712514162055 5.2259681820869446 4.1291312873363495
leaf_count=24 34 25 21 20
internal_value=0 -0.0195831 0.028795 -0.0382815
internal_weight=0 17.4689 11.4278 11.0607
internal_count=124 79 45 54
is_linear=0
shrinkage=0.05


Tree=50
num_leaves=5
num_cat=0
split_feature=0 7 3 3
split_gain=11.9019 1.41812e-05 9.87651e-06 1.244e-06
threshold=1.0000000180025095e-35 29.500000000000004 198.70731707317051 190.53740702300641
decision_type=2 2 2 2
left_child=-1 3 -3 -2
right_child=1 2 -4 -5
leaf_value=0.2164047886883326 -0.033808725014355431 -0.034127755591808147 -0.033847675546378179 -0.033706483244999225
leaf_weight=0.58635793626308474 0.7125026108697059 0.71380412951111771 0.5630376385524869 0.510797337628901
leaf_count=3 36 24 29 32
internal_value=0 -0.0338877 -0.0340043 -0.033766
internal_weight=0 2.50014 1.27684 1.2233
internal_count=124 121 53 68
is_linear=0
shrinkage=0.05


Tree=51
num_leaves=5
num_cat=0
split_feature=11 7 3 12
split_gain=4.70503 2.36831 1.59143 0.342436
threshold=3.5000000000000004 24.500000000000004 200.20731707317051 6.5000000000000009
decision_type=2 2 2 2
left_child=1 3 -3 -1
right_child=-2 2 -4 -5
leaf_value=-0.019385203919706395 0.039534743498408714 -0.010526768714805703 0.027249253137154258 -0.037643167381545675
leaf_weight=4.8883255869150215 5.6895371079444876 7.3463563024997693 4.4932557940483093 5.4106310158967972
leaf_count=20 29 32 20 23
internal_value=0 -0.0114429 0.00380962 -0.0289772
internal_weight=0 22.1386 11.8396 10.299
internal_count=124 95 52 43
is_linear=0
shrinkage=0.05


Tree=52
num_leaves=5
num_cat=0
split_feature=0 7 9 7
split_gain=14.9952 0.680779 0.00123484 0.000732903
threshold=1.5000000000000002 24.500000000000004 197.00000000000003 29.500000000000004
decision_type=2 2 2 2
left_child=1 -1 3 -2
right_child=2 -3 -4 -5
leaf_value=0.042592429041176591 -0.03956572691153052 0.020532292848914224 -0.040171246667087879 -0.03867025210068667
leaf_weight=9.0721888244152051 4.5126785635948163 5.6911955177783975 3.939411163330079 4.628653347492218
leaf_count=36 23 20 19 26
internal_value=0 0.0340884 -0.0394312 -0.0391123
internal_weight=0 14.7634 13.0807 9.14133
internal_count=124 56 68 49
is_linear=0
shrinkage=0.05


Tree=53
num_leaves=6
num_cat=0
split_feature=12 13 5 7 5
split_gain=2.38314 1.45766 1.33381e-05 3.81481e-06 1.75296e-06
threshold=1.0000000180025095e-35 9.5000000000000018 6.5000000000000009 29.500000000000004 1.0000000180025095e-35
decision_type=2 2 2 2 2
left_child=-1 2 3 -2 -5
right_child=1 -3 -4 4 -6
leaf_value=0.08799055731297678 -0.033713063344281528 0.062724057700093844 -0.034139374246402267 -0.033814969608337846 -0.033961246112485334
leaf_weight=0.79282075818628106 0.5357678644359114 0.50031258072704066 0.41972210071980942 0.43045633751899004 0.39072938077151775
leaf_count=21 34 15 14 23 17
internal_value=0 -0.0126638 -0.033893 -0.0338169 -0.0338846
internal_weight=0 2.27699 1.77668 1.35695 0.821186
internal_count=124 103 88 74 40
is_linear=0
shrinkage=0.05


Tree=54
num_leaves=5
num_cat=0
split_feature=0 8 5 2
split_gain=17.8697 0.00473812 0.00157536 0.000139062
threshold=1.5000000000000002 197.00000000000003 1.0000000180025095e-35 178.50000000000003
decision_type=2 2 2 2
left_child=1 -1 3 -2
right_child=2 -3 -4 -5
leaf_value=-0.042774403019856765 0.039414352746986764 -0.040894828171536404 0.040296089840913776 0.038984901910466697
leaf_weight=6.9110876619815826 3.8781725466251373 6.5125264823436737 5.9026269465684891 3.6678648293018341
leaf_count=27 20 29 28 20
internal_value=0 -0.0418625 0.0396842 0.0392056
internal_weight=0 13.4236 13.4487 7.54604
internal_count=124 56 68 40
is_linear=0
shrinkage=0.05


Tree=55
num_leaves=4
num_cat=0
split_feature=0 7 11
split_gain=14.0706 0.653731 0.00145501
threshold=1.5000000000000002 24.500000000000004 3.5000000000000004
decision_type=2 2 2
left_child=1 -1 -2
right_child=2 -3 -4
leaf_value=0.041970972929364192 -0.039538814043079192 0.020105202455929772 -0.038438148023234933
leaf_weight=8.7038247436285001 7.5977790057659149 5.6290017813444146 4.9645402282476425
leaf_count=36 39 20 29
internal_value=0 0.0333835 -0.0391038
internal_weight=0 14.3328 12.5623
internal_count=124 56 68
is_linear=0
shrinkage=0.05


Tree=56
num_leaves=6
num_cat=0
split_feature=0 5 7 3 3
split_gain=8.7419 1.18561e-05 2.84268e-06 1.79267e-06 8.40929e-07
threshold=1.0000000180025095e-35 8.5000000000000018 29.500000000000004 200.20731707317051 197.00000000000003
decision_type=2 2 2 2 2
left_child=-1 2 4 -4 -2
right_child=1 -3 3 -5 -6
leaf_value=0.16496229815021157 -0.033762096045867065 -0.034075120857811066 -0.033921110508050814 -0.033780096654672749 -0.0336623514314515
leaf_weight=0.72550866007804904 0.66000817809253953 0.45094136521220196 0.46946187317371368 0.43349452316761017 0.31082450225949287
leaf_count=3 37 16 20 26 22
internal_value=0 -0.0338449 -0.0337896 -0.0338534 -0.0337302
internal_weight=0 2.32473 1.87379 0.902956 0.970833
internal_count=124 121 105 46 59
is_linear=0
shrinkage=0.05


Tree=57
num_leaves=5
num_cat=0
split_feature=0 8 5 2
split_gain=16.5356 0.00372456 0.00126309 0.000110025
threshold=1.5000000000000002 197.00000000000003 1.0000000180025095e-35 178.50000000000003
decision_type=2 2 2 2
left_child=1 -1 3 -2
right_child=2 -3 -4 -5
leaf_value=-0.042065052709448103 0.038957991083763334 -0.040359121176582517 0.039770267489295269 0.038565274273916116
leaf_weight=6.6076528429985046 3.6708895266056061 6.2034037858247757 5.5999512374401093 3.4687937796115875
leaf_count=27 20 29 28 20
internal_value=0 -0.041239 0.0392081 0.0387672
internal_weight=0 12.8111 12.7396 7.13968
internal_count=124 56 68 40
is_linear=0
shrinkage=0.05


Tree=58
num_leaves=5
num_cat=0
split_feature=9 11 11 14
split_gain=4.45358 2.85631 0.564614 0.386008
threshold=200.20731707317051 1.0000000180025095e-35 1.0000000180025095e-35 2.5000000000000004
decision_type=2 2 2 2
left_child=1 -1 -2 -3
right_child=2 3 -4 -5
leaf_value=0.0067839110338179121 0.035079773189732738 -0.025906275272788049 0.011538908530348594 -0.047134074915966259
leaf_weight=6.7140770554542568 5.8476920425891858 4.1856617927551252 4.5127412527799606 4.3851498067378998
leaf_count=31 26 24 20 23
internal_value=0 -0.0176368 0.024826 -0.0367672
internal_weight=0 15.2849 10.3604 8.57081
internal_count=124 78 46 47
is_linear=0
shrinkage=0.05


Tree=59
num_leaves=5
num_cat=0
split_feature=0 11 6 12
split_gain=7.48562 3.89375e-06 1.8095e-06 6.03804e-07
threshold=1.0000000180025095e-35 2.5000000000000004 12.500000000000002 3.5000000000000004
decision_type=2 2 2 2
left_child=-1 2 3 -2
right_child=1 -3 -4 -5
leaf_value=0.14511880990721776 -0.03375328290174167 -0.033907121709998087 -0.033825265062104024 -0.033660590201772228
leaf_weight=0.79613977670669589 0.39535620901733659 0.78561578877270211 0.70128479413688183 0.31620493531227112
leaf_count=3 22 39 37 23
internal_value=0 -0.0338179 -0.0337683 -0.0337121
internal_weight=0 2.19846 1.41285 0.711561
internal_count=124 121 82 45
is_linear=0
shrinkage=0.05


Tree=60
num_leaves=4
num_cat=0
split_feature=9 7 5
split_gain=3.27388 2.67706 0.406901
threshold=200.20731707317051 24.500000000000004 1.0000000180025095e-35
decision_type=2 2 2
left_child=1 -1 -3
right_child=-2 2 -4
leaf_value=-0.014744809284342204 -0.025296279299780434 0.038072661089373377 0.018447959345616376
leaf_weight=5.5535717010498109 8.2951539903879148 5.2146672606468183 5.3524506986141205
leaf_count=25 39 32 28
internal_value=0 0.0133612 0.0281324
internal_weight=0 16.1207 10.5671
internal_count=124 85 60
is_linear=0
shrinkage=0.05


Tree=61
num_leaves=5
num_cat=0
split_feature=0 7 11 8
split_gain=11.9545 0.718391 0.00120079 0.00046773
threshold=1.5000000000000002 27.500000000000004 3.5000000000000004 188.14240506329116
decision_type=2 2 2 2
left_child=1 -1 3 -2
right_child=2 -3 -4 -5
leaf_value=0.04104720694806524 -0.03828779728308207 0.016612318220281447 -0.037663904221371558 -0.039104699162610237
leaf_weight=7.8725209385156631 3.4967911690473557 4.8680528700351715 4.6957756727933884 3.512232780456543
leaf_count=35 21 18 31 19
internal_value=0 0.0317109 -0.0382826 -0.0386971
internal_weight=0 12.7406 11.7048 7.00902
internal_count=124 53 71 40
is_linear=0
shrinkage=0.05


Tree=62
num_leaves=5
num_cat=0
split_feature=0 7 13 12
split_gain=6.31361 7.92272e-06 1.04552e-06 3.3412e-07
threshold=1.0000000180025095e-35 31.500000000000004 5.5000000000000009 3.5000000000000004
decision_type=2 2 2 2
left_child=-1 2 3 -2
right_child=1 -3 -4 -5
leaf_value=0.12571456436608361 -0.033717853538966149 -0.03392640460677749 -0.033772304132534174 -0.033645777562843586
leaf_weight=0.87669950723648105 0.32920119352638744 0.81993014086037863 0.65736962575465441 0.31430678069591522
leaf_count=3 20 39 38 24
internal_value=0 -0.0338047 -0.033728 -0.0336826
internal_weight=0 2.12081 1.30088 0.643508
internal_count=124 121 82 44
is_linear=0
shrinkage=0.05


Tree=63
num_leaves=4
num_cat=0
split_feature=0 8 11
split_gain=14.723 0.00331857 0.00105059
threshold=1.5000000000000002 197.00000000000003 2.5000000000000004
decision_type=2 2 2
left_child=1 -1 -2
right_child=2 -3 -4
leaf_value=-0.041307324523856215 0.038978326436394116 -0.03957740602142687 0.03804588575841357
leaf_weight=6.6935252845287323 6.340589627623558 4.732290118932724 5.7697807103395462
leaf_count=29 35 24 36
internal_value=0 -0.0405908 0.0385341
internal_weight=0 11.4258 12.1104
internal_count=124 53 71
is_linear=0
shrinkage=0.05


Tree=64
num_leaves=5
num_cat=0
split_feature=0 7 11 8
split_gain=11.3019 0.684477 0.00120174 0.000563428
threshold=1.5000000000000002 27.500000000000004 3.5000000000000004 188.14240506329116
decision_type=2 2 2 2
left_child=1 -1 3 -2
right_child=2 -3 -4 -5
leaf_value=0.040595759483716111 -0.038018404758382376 0.016442584533167867 -0.037424079754118947 -0.038931700078746106
leaf_weight=7.5677079409360886 3.3391175717115402 4.789796382188797 4.4782756119966507 3.4166311919689178
leaf_count=35 21 18 31 19
internal_value=0 0.0312339 -0.0380592 -0.0384803
internal_weight=0 12.3575 11.234 6.75575
internal_count=124 53 71 40
is_linear=0
shrinkage=0.05


Tree=65
num_leaves=5
num_cat=0
split_feature=0 7 3 0
split_gain=5.69083 7.18434e-06 8.81338e-07 1.71666e-06
threshold=1.0000000180025095e-35 31.500000000000004 190.53740702300641 1.5000000000000002
decision_type=2 2 2 2
left_child=-1 2 3 -2
right_child=1 -3 -4 -5
leaf_value=0.11621640008762274 -0.033825504360206898 -0.033901173970382788 -0.033658443022462618 -0.033670086812782593
leaf_weight=0.92036530375480685 0.33844022452831291 0.78489975444972504 0.52303027641028166 0.37403466366231441
leaf_count=3 17 39 39 26
internal_value=0 -0.0337829 -0.0337077 -0.0337439
internal_weight=0 2.0204 1.23551 0.712475
internal_count=124 121 82 43
is_linear=0
shrinkage=0.05


Tree=66
num_leaves=4
num_cat=0
split_feature=11 5 4
split_gain=3.32686 1.70749 1.09821
threshold=3.5000000000000004 1.0000000180025095e-35 27.500000000000004
decision_type=2 2 2
left_child=1 -1 -3
right_child=-2 2 -4
leaf_value=0.013306819513918617 0.03764401626091389 -0.032235308675116765 -0.0014507361661126638
leaf_weight=5.4790840595960679 4.6511956155300131 7.4680727273225767 4.7332239896059036
leaf_count=31 31 38 24
internal_value=0 -0.00988062 -0.0202931
internal_weight=0 17.6804 12.2013
internal_count=124 93 62
is_linear=0
shrinkage=0.05


Tree=67
num_leaves=5
num_cat=0
split_feature=0 7 11 3
split_gain=10.4003 0.669978 0.000961388 0.000221902
threshold=1.5000000000000002 27.500000000000004 3.5000000000000004 190.53740702300641
decision_type=2 2 2 2
left_child=1 -1 3 -2
right_child=2 -3 -4 -5
leaf_value=0.040036271551137266 -0.037812167425633168 0.015703646027857527 -0.037131463232030447 -0.038401831345745853
leaf_weight=7.1784249842166901 3.2242738753557205 4.6688806712627411 4.2227396070957184 3.1583423614501953
leaf_count=35 21 18 31 19
internal_value=0 0.0304471 -0.0377167 -0.038104
internal_weight=0 11.8473 10.6054 6.38262
internal_count=124 53 71 40
is_linear=0
shrinkage=0.05


Tree=68
num_leaves=6
num_cat=0
split_feature=0 5 6 10 9
split_gain=5.08615 4.32683e-06 1.89689e-06 1.20063e-06 3.55471e-07
threshold=1.0000000180025095e-35 6.5000000000000009 1.5000000000000002 23.500000000000004 197.00000000000003
decision_type=2 2 2 2 2
left_child=-1 2 -2 4 -4
right_child=1 -3 3 -5 -6
leaf_value=0.10712577190085862 -0.033851164247259855 -0.033918971860913492 -0.033684811419334021 -0.033753648678831509 -0.033613687446462322
leaf_weight=0.96436601877212536 0.24444917310029257 0.34451998211443435 0.45733273588120915 0.57674782909452915 0.28524899575859308
leaf_count=3 13 16 31 36 25
internal_value=0 -0.0337586 -0.0337232 -0.0336995 -0.0336575
internal_weight=0 1.9083 1.56378 1.31933 0.742582
internal_count=124 121 105 92 56
is_linear=0
shrinkage=0.05


Tree=69
num_leaves=4
num_cat=0
split_feature=0 8 11
split_gain=12.9708 0.00229234 0.000992217
threshold=1.5000000000000002 197.00000000000003 2.5000000000000004
decision_type=2 2 2
left_child=1 -1 -2
right_child=2 -3 -4
leaf_value=-0.040398271264869681 0.038364299063966698 -0.038898461556659783 0.037411960363034132
leaf_weight=6.1823451966047287 5.8220283836126328 4.3334676325321198 5.1582641154527664
leaf_count=29 35 24 36
internal_value=0 -0.0397802 0.0379169
internal_weight=0 10.5158 10.9803
internal_count=124 53 71
is_linear=0
shrinkage=0.05


Tree=70
num_leaves=5
num_cat=0
split_feature=0 3 11 3
split_gain=9.82704 0.626061 0.00108348 0.000202075
threshold=1.5000000000000002 190.53740702300641 3.5000000000000004 190.53740702300641
decision_type=2 2 2 2
left_child=1 -1 3 -2
right_child=2 -3 -4 -5
leaf_value=0.016314085415200564 -0.037636149629345028 0.03995440991920339 -0.036861916651036483 -0.03820768492005408
leaf_weight=4.8412936478853226 3.1197222769260406 6.6440299898386002 3.9797552600502968 3.0669712573289871
leaf_count=20 21 33 31 19
internal_value=0 0.0299895 -0.0375055 -0.0379195
internal_weight=0 11.4853 10.1664 6.18669
internal_count=124 53 71 40
is_linear=0
shrinkage=0.05


Tree=71
num_leaves=6
num_cat=0
split_feature=0 7 3 8 0
split_gain=4.62177 5.11532e-06 4.0435e-06 4.04066e-07 6.16614e-07
threshold=1.0000000180025095e-35 29.500000000000004 198.70731707317051 191.50000000000003 1.5000000000000002
decision_type=2 2 2 2 2
left_child=-1 3 -3 4 -2
right_child=1 2 -4 -5 -6
leaf_value=0.10017692064225209 -0.03372706321140051 -0.033909415886204976 -0.033699042518620347 -0.033603188059466778 -0.033624559821135512
leaf_weight=0.9989435374736787 0.28768918756395578 0.52967901434749365 0.40158291812986135 0.29658313933759928 0.29940803162753582
leaf_count=3 17 25 29 26 24
internal_value=0 -0.0337369 -0.0338187 -0.0336508 -0.0336748
internal_weight=0 1.81494 0.931262 0.88368 0.587097
internal_count=124 121 54 67 41
is_linear=0
shrinkage=0.05


Tree=72
num_leaves=5
num_cat=0
split_feature=0 8 8 4
split_gain=12.0545 0.00197128 0.000396605 0.000102385
threshold=1.5000000000000002 197.00000000000003 188.14240506329116 17.500000000000004
decision_type=2 2 2 2
left_child=1 -1 3 -2
right_child=2 -3 -4 -5
leaf_value=-0.039927564643166366 0.037125925190204398 -0.038501038554154959 0.037952550192715526 0.037537933688717932
leaf_weight=5.9024950116872787 3.1142852678894997 4.1066807508468628 4.328262560069561 2.9232656881213188
leaf_count=29 23 24 28 20
internal_value=0 -0.0393423 0.0375873 0.0373254
internal_weight=0 10.0092 10.3658 6.03755
internal_count=124 53 71 43
is_linear=0
shrinkage=0.05


Tree=73
num_leaves=5
num_cat=0
split_feature=0 7 11 4
split_gain=9.05272 0.647541 0.000869605 6.22105e-05
threshold=1.5000000000000002 27.500000000000004 3.5000000000000004 18.500000000000004
decision_type=2 2 2 2
left_child=1 -1 3 -2
right_child=2 -3 -4 -5
leaf_value=0.039243378610598782 -0.037429834590633905 0.014524923572254531 -0.036612890385760571 -0.037756365087403362
leaf_weight=6.5575892627239227 2.9972736239433289 4.4457433372735977 3.7485810294747353 2.8415524289011955
leaf_count=35 21 18 31 19
internal_value=0 0.0292562 -0.0372072 -0.0375887
internal_weight=0 11.0033 9.58741 5.83883
internal_count=124 53 71 40
is_linear=0
shrinkage=0.05


Tree=74
num_leaves=6
num_cat=0
split_feature=0 7 5 8 0
split_gain=4.18925 4.16085e-06 4.8992e-06 3.59462e-07 5.92093e-07
threshold=1.0000000180025095e-35 29.500000000000004 2.5000000000000004 191.50000000000003 1.5000000000000002
decision_type=2 2 2 2 2
left_child=-1 3 -3 4 -2
right_child=1 2 -4 -5 -6
leaf_value=0.093875149678323833 -0.033709939692748166 -0.033693808149705268 -0.033935043268634182 -0.033588320962088983 -0.033606783457541631
leaf_weight=1.0302902460098269 0.27511528041213729 0.52548701129853725 0.35108191799372435 0.27996038272976875 0.2813705182634294
leaf_count=3 17 39 15 26 24
internal_value=0 -0.0337143 -0.0337904 -0.0336345 -0.0336578
internal_weight=0 1.71302 0.876569 0.836446 0.556486
internal_count=124 121 54 67 41
is_linear=0
shrinkage=0.05


Tree=75
num_leaves=5
num_cat=0
split_feature=0 7 5 13
split_gain=11.2347 0.00172749 0.000782312 0.000191783
threshold=1.5000000000000002 27.500000000000004 2.5000000000000004 4.5000000000000009
decision_type=2 2 2 2
left_child=1 -1 3 -2
right_child=2 -3 -4 -5
leaf_value=-0.038404402743554285 0.03740448688357443 -0.039770461346949032 0.038137244106902571 0.036855444450201481
leaf_weight=5.8882509917020798 3.6771620064973831 3.8128681927919388 3.0580581426620483 2.802877813577652
leaf_count=35 26 19 19 22
internal_value=0 -0.0389413 0.0374781 0.037167
internal_weight=0 9.70112 9.5381 6.48004
internal_count=121 54 67 48
is_linear=0
shrinkage=0.05


Tree=76
num_leaves=5
num_cat=0
split_feature=0 3 11 5
split_gain=8.4443 0.640128 0.000797588 0.000306208
threshold=1.5000000000000002 190.53740702300641 3.5000000000000004 1.0000000180025095e-35
decision_type=2 2 2 2
left_child=1 -1 3 -2
right_child=2 -3 -4 -5
leaf_value=0.014471584323182933 -0.037076154102605278 0.03918175820099265 -0.036476229939135532 -0.037810511247227951
leaf_weight=4.5114098489284515 2.6542899757623672 6.2545486092567444 3.1356344819068909 3.0514358207583427
leaf_count=20 20 34 27 20
internal_value=0 0.0288271 -0.0371168 -0.0374689
internal_weight=0 10.766 8.84136 5.70573
internal_count=121 54 67 40
is_linear=0
shrinkage=0.05


Tree=77
num_leaves=6
num_cat=0
split_feature=0 5 7 5 12
split_gain=3.83932 6.02085e-06 1.72726e-06 1.05493e-06 1.52112e-07
threshold=1.0000000180025095e-35 8.5000000000000018 28.500000000000004 1.0000000180025095e-35 3.5000000000000004
decision_type=2 2 2 2 2
left_child=-1 2 4 -4 -2
right_child=1 -3 3 -5 -6
leaf_value=0.088481216353996056 -0.033634086601875272 -0.033909004482665324 -0.033649913539884203 -0.033772042366477392 -0.033582580123240731
leaf_weight=1.0563808679580691 0.26583489496260859 0.3334406530484556 0.29944495903328061 0.4317767322063446 0.31109084328636527
leaf_count=3 21 16 25 26 30
internal_value=0 -0.0337193 -0.033671 -0.033722 -0.0336063
internal_weight=0 1.64159 1.30815 0.731222 0.576926
internal_count=121 118 102 51 51
is_linear=0
shrinkage=0.05


Tree=78
num_leaves=5
num_cat=0
split_feature=0 8 11 5
split_gain=10.4546 0.00134461 0.000651054 0.000346634
threshold=1.5000000000000002 197.00000000000003 3.5000000000000004 1.0000000180025095e-35
decision_type=2 2 2 2
left_child=1 -1 3 -2
right_child=2 -3 -4 -5
leaf_value=-0.039065134893318795 0.037084859788288869 -0.03783315256218997 0.036617318282220944 0.037863632095860418
leaf_weight=5.5291254669427872 2.6626849696040154 3.6947260200977325 3.2502564936876297 3.0835958048701286
leaf_count=30 20 24 27 20
internal_value=0 -0.0385716 0.0371829 0.0375028
internal_weight=0 9.22385 8.99654 5.74628
internal_count=121 54 67 40
is_linear=0
shrinkage=0.05


Tree=79
num_leaves=5
num_cat=0
split_feature=0 7 11 4
split_gain=7.786 0.684479 0.000643136 2.932e-05
threshold=1.5000000000000002 28.500000000000004 3.5000000000000004 17.500000000000004
decision_type=2 2 2 2
left_child=1 -1 3 -2
right_child=2 -3 -4 -5
leaf_value=0.038483074071518145 -0.037054857528836985 0.012079106754974204 -0.036255583873575706 -0.037288335131352386
leaf_weight=6.2731230854988098 2.6320949643850327 4.032163068652153 2.9504496827721596 2.7491093948483467
leaf_count=37 20 17 27 20
internal_value=0 0.028152 -0.0368489 -0.0371741
internal_weight=0 10.3053 8.33165 5.3812
internal_count=121 54 67 40
is_linear=0
shrinkage=0.05


Tree=80
num_leaves=5
num_cat=0
split_feature=0 7 2 3
split_gain=3.51312 4.43199e-06 3.39983e-06 2.67048e-07
threshold=1.0000000180025095e-35 29.500000000000004 193.50000000000003 192.00000000000003
decision_type=2 2 2 2
left_child=-1 3 -3 -2
right_child=1 2 -4 -5
leaf_value=0.083867607087611748 -0.033630722273021156 -0.033867040738990321 -0.033660043843254009 -0.033567343197467951
leaf_weight=1.0774062275886538 0.48644501669332363 0.46320539014413953 0.34694650257006288 0.25245943199843168
leaf_count=3 39 24 29 26
internal_value=0 -0.0336976 -0.0337784 -0.0336091
internal_weight=0 1.54906 0.810152 0.738904
internal_count=121 118 53 65
is_linear=0
shrinkage=0.05


Tree=81
num_leaves=5
num_cat=0
split_feature=0 8 11 6
split_gain=9.73531 0.00110499 0.000522877 3.50809e-05
threshold=1.5000000000000002 197.00000000000003 3.5000000000000004 11.500000000000002
decision_type=2 2 2 2
left_child=1 -1 3 -2
right_child=2 -3 -4 -5
leaf_value=-0.038694683422579382 0.037075366416191351 -0.037548446741872243 0.03638812385351238 0.03732984754499815
leaf_weight=5.2610882669687271 2.646479144692421 3.5022198408842087 3.0608431920409203 2.7734999135136604
leaf_count=30 20 24 27 20
internal_value=0 -0.0382366 0.0369106 0.0372056
internal_weight=0 8.76331 8.48082 5.41998
internal_count=121 54 67 40
is_linear=0
shrinkage=0.05


Tree=82
num_leaves=5
num_cat=0
split_feature=0 7 11 5
split_gain=7.18394 0.666919 0.00051719 0.000198272
threshold=1.5000000000000002 28.500000000000004 3.5000000000000004 1.0000000180025095e-35
decision_type=2 2 2 2
left_child=1 -1 3 -2
right_child=2 -3 -4 -5
leaf_value=0.038105146799401413 -0.036565913689897034 0.0115452734221289 -0.036052713758958563 -0.037192779861303885
leaf_weight=5.9262276440858859 2.3550230786204329 3.9315196722745895 2.775942362844944 2.7163098007440567
leaf_count=37 20 17 27 20
internal_value=0 0.0275124 -0.0366014 -0.0369017
internal_weight=0 9.85775 7.84728 5.07133
internal_count=121 54 67 40
is_linear=0
shrinkage=0.05


Tree=83
num_leaves=6
num_cat=0
split_feature=0 5 7 5 3
split_gain=3.22437 4.34632e-06 1.27771e-06 7.7646e-07 2.28107e-07
threshold=1.0000000180025095e-35 8.5000000000000018 28.500000000000004 1.0000000180025095e-35 192.00000000000003
decision_type=2 2 2 2 2
left_child=-1 2 4 -4 -2
right_child=1 -3 3 -5 -6
leaf_value=0.079801505597209346 -0.033602793614246784 -0.033849111743968076 -0.033616133141479619 -0.033727206777427264 -0.033534251517954271
leaf_weight=1.0942159891128542 0.31445891689509131 0.29914061445742834 0.265791947953403 0.38560144323855639 0.19769885903224349
leaf_count=3 28 16 25 26 23
internal_value=0 -0.0336791 -0.0336354 -0.0336819 -0.0335763
internal_weight=0 1.46269 1.16355 0.651393 0.512158
internal_count=121 118 102 51 51
is_linear=0
shrinkage=0.05


Tree=84
num_leaves=5
num_cat=0
split_feature=0 7 11 6
split_gain=9.07181 0.00122259 0.000420523 2.81453e-05
threshold=1.5000000000000002 27.500000000000004 3.5000000000000004 11.500000000000002
decision_type=2 2 2 2
left_child=1 -1 3 -2
right_child=2 -3 -4 -5
leaf_value=-0.03743397382193097 0.036811332164518651 -0.038670970129314142 0.036176074609451041 0.037046103787289071
leaf_weight=4.9934121742844599 2.4942685291171065 3.3292914479970932 2.8811727985739708 2.6149866357445717
leaf_count=35 20 19 27 20
internal_value=0 -0.0379288 0.0366591 0.0369315
internal_weight=0 8.3227 7.99043 5.10926
internal_count=121 54 67 40
is_linear=0
shrinkage=0.05


Tree=85
num_leaves=5
num_cat=0
split_feature=0 7 8 7
split_gain=6.63162 0.649445 0.000299704 7.04677e-05
threshold=1.5000000000000002 28.500000000000004 188.14240506329116 30.500000000000004
decision_type=2 2 2 2
left_child=1 -1 3 -2
right_child=2 -3 -4 -5
leaf_value=0.03775785574431878 -0.036284636121680792 0.011040354471534992 -0.036730636805886986 -0.035870590957706533
leaf_weight=5.5943349525332469 2.1786759868264189 3.8328847438097 3.2638313248753548 1.9450613185763357
leaf_count=37 20 17 27 20
internal_value=0 0.0268952 -0.0363727 -0.0360893
internal_weight=0 9.42722 7.38757 4.12374
internal_count=121 54 67 40
is_linear=0
shrinkage=0.05


Tree=86
num_leaves=7
num_cat=0
split_feature=0 5 0 5 14 8
split_gain=2.96864 3.78388e-06 4.86619e-07 8.40798e-07 4.13794e-07 4.37478e-08
threshold=1.0000000180025095e-35 8.5000000000000018 1.5000000000000002 1.5000000000000002 2.5000000000000004 183.50000000000003
decision_type=2 2 2 2 2 2
left_child=-1 2 4 5 -2 -4
right_child=1 -3 3 -5 -6 -7
leaf_value=0.076242464350802619 -0.033608622596299258 -0.033824625616670233 -0.033561863255834927 -0.033667305793234466 -0.033701048824687288 -0.033528302734945475
leaf_weight=1.1069115996360781 0.23115605581551768 0.28327888902276743 0.20028157578781247 0.22343648178502917 0.25433982443064451 0.18849328719079494
leaf_count=3 23 16 21 17 18 23
internal_value=0 -0.0336617 -0.0336197 -0.03359 -0.033657 -0.0335456
internal_weight=0 1.38099 1.09771 0.612211 0.485496 0.388775
internal_count=121 118 102 61 41 44
is_linear=0
shrinkage=0.05


Tree=87
num_leaves=5
num_cat=0
split_feature=0 7 11 2
split_gain=8.45898 0.00118522 0.000339754 1.14137e-05
threshold=1.5000000000000002 27.500000000000004 3.5000000000000004 193.50000000000003
decision_type=2 2 2 2
left_child=1 -1 3 -2
right_child=2 -3 -4 -5
leaf_value=-0.037141058563228461 0.036604455406851324 -0.038388899871104498 0.035979030722434066 0.036758514537300627
leaf_weight=4.7079228907823563 2.4879656732082367 3.1938616931438446 2.7103047743439674 2.3264096453785896
leaf_count=35 21 19 27 19
internal_value=0 -0.0376454 0.0364268 0.0366789
internal_weight=0 7.90178 7.52468 4.81438
internal_count=121 54 67 40
is_linear=0
shrinkage=0.05


Tree=88
num_leaves=5
num_cat=0
split_feature=0 3 8 7
split_gain=6.12445 0.636692 0.000242649 5.67762e-05
threshold=1.5000000000000002 190.53740702300641 188.14240506329116 30.500000000000004
decision_type=2 2 2 2
left_child=1 -1 3 -2
right_child=2 -3 -4 -5
leaf_value=0.011048391019564632 -0.036078981845993771 0.037877807126489138 -0.036493051662631094 -0.035695718848011974
leaf_weight=3.890514522790907 2.0492586344480528 5.1232599541544914 3.0739664062857628 1.8285136222839353
leaf_count=20 20 34 27 20
internal_value=0 0.0262977 -0.0361613 -0.0358983
internal_weight=0 9.01377 6.95174 3.87777
internal_count=121 54 67 40
is_linear=0
shrinkage=0.05


Tree=89
num_leaves=6
num_cat=0
split_feature=0 5 7 5 12
split_gain=2.74042 3.29845e-06 1.04931e-06 5.67865e-07 7.9294e-08
threshold=1.0000000180025095e-35 8.5000000000000018 28.500000000000004 1.0000000180025095e-35 3.5000000000000004
decision_type=2 2 2 2 2
left_child=-1 2 4 -4 -2
right_child=1 -3 3 -5 -6
leaf_value=0.073099143170962 -0.033570187546015678 -0.033801557248044019 -0.033589520025592269 -0.033689927487021036 -0.033528178641337565
leaf_weight=1.1159109771251681 0.20905817858874776 0.2682373858988284 0.23728692624717951 0.34636378660798073 0.2427807142958045
leaf_count=3 21 16 25 26 30
internal_value=0 -0.0336453 -0.0336048 -0.0336491 -0.0335476
internal_weight=0 1.30373 1.03549 0.583651 0.451839
internal_count=121 118 102 51 51
is_linear=0
shrinkage=0.05


Tree=90
num_leaves=4
num_cat=0
split_feature=0 8 11
split_gain=7.87727 0.000451125 0.000410173
threshold=1.5000000000000002 197.00000000000003 3.5000000000000004
decision_type=2 2 2
left_child=1 -1 -2
right_child=2 -3 -4
leaf_value=-0.037604183427833414 0.036437413170650211 -0.036798686526987583 0.035672343205947254
leaf_weight=4.4501451551914215 4.3981911912560463 2.8523893058300018 2.9116437360644341
leaf_count=30 39 23 32
internal_value=0 -0.0372896 0.0361327
internal_weight=0 7.30253 7.30983
internal_count=124 53 71
is_linear=0
shrinkage=0.05


Tree=91
num_leaves=4
num_cat=0
split_feature=0 8 11
split_gain=6.26683 0.408027 0.000380735
threshold=1.5000000000000002 188.14240506329116 3.5000000000000004
decision_type=2 2 2
left_child=1 -1 -2
right_child=2 -3 -4
leaf_value=0.014119252628594054 -0.036194723457696566 0.037497182596411147 -0.035425053926738441
leaf_weight=2.8864801079034788 4.0999530777335176 5.281697005033493 2.6422872319817543
leaf_count=16 39 37 32
internal_value=0 0.0292359 -0.0358931
internal_weight=0 8.16818 6.74224
internal_count=124 53 71
is_linear=0
shrinkage=0.05


Tree=92
num_leaves=5
num_cat=0
split_feature=3 7 11 14
split_gain=1.31305 1.39987e-06 1.09612e-07 7.10529e-08
threshold=184.00000000000003 33.500000000000007 1.0000000180025095e-35 2.5000000000000004
decision_type=2 2 2 2
left_child=-1 2 3 -2
right_child=1 -3 -4 -5
leaf_value=0.048284993196448349 -0.033548460383800556 -0.033680723302935874 -0.033525834584706475 -0.033588053986556142
leaf_weight=0.94374970626086008 0.25257112039253093 0.29450509790331125 0.2652668240480125 0.20550789032131433
leaf_count=17 29 25 34 19
internal_value=0 -0.0335888 -0.0335514 -0.0335662
internal_weight=0 1.01785 0.723346 0.458079
internal_count=124 107 82 48
is_linear=0
shrinkage=0.05


Tree=93
num_leaves=5
num_cat=0
split_feature=0 8 5 8
split_gain=7.35347 0.000408733 0.000242109 0.000120429
threshold=1.5000000000000002 197.00000000000003 2.5000000000000004 188.14240506329116
decision_type=2 2 2 2
left_child=1 -1 3 -2
right_child=2 -3 -4 -5
leaf_value=-0.037342380590198294 0.035527524740847853 -0.036553811961753883 0.036403772465861774 0.036027401712967207
leaf_weight=4.2350696623325348 2.6778212636709213 2.6850687190890312 2.0182497054338455 2.1905004382133484
leaf_count=30 31 23 18 22
internal_value=0 -0.0370364 0.0359433 0.0357524
internal_weight=0 6.92014 6.88657 4.86832
internal_count=124 53 71 53
is_linear=0
shrinkage=0.05


Tree=94
num_leaves=4
num_cat=0
split_feature=0 8 11
split_gain=5.78903 0.405857 0.000308248
threshold=1.5000000000000002 188.14240506329116 3.5000000000000004
decision_type=2 2 2
left_child=1 -1 -2
right_child=2 -3 -4
leaf_value=0.013415477723099712 -0.035996591383990965 0.03720340535833868 -0.035282195615850394
leaf_weight=2.8006149455904961 3.856486864387989 4.9841620251536369 2.481567420065403
leaf_count=16 39 37 32
internal_value=0 0.0286456 -0.0357169
internal_weight=0 7.78478 6.33805
internal_count=124 53 71
is_linear=0
shrinkage=0.05


Tree=95
num_leaves=5
num_cat=0
split_feature=0 7 4 3
split_gain=1.88129 1.70863e-06 1.58634e-07 1.81391e-07
threshold=1.0000000180025095e-35 33.500000000000007 34.500000000000007 190.53740702300641
decision_type=2 2 2 2
left_child=-1 2 3 -2
right_child=1 -3 -4 -5
leaf_value=0.06809214840698051 -0.033559825729629345 -0.033679078833205887 -0.033591705783010503 -0.03350481347491862
leaf_weight=0.7493911385536195 0.36247241217643 0.37022300576791167 0.169356276281178 0.25544056296348572
leaf_count=2 38 31 16 37
internal_value=0 -0.0335905 -0.0335488 -0.0335371
internal_weight=0 1.15749 0.787269 0.617913
internal_count=124 122 91 75
is_linear=0
shrinkage=0.05


Tree=96
num_leaves=5
num_cat=0
split_feature=0 9 5 13
split_gain=6.86111 0.000368683 0.000196407 4.19696e-05
threshold=1.5000000000000002 203.50000000000003 2.5000000000000004 4.5000000000000009
decision_type=2 2 2 2
left_child=1 -1 3 -2
right_child=2 -3 -4 -5
leaf_value=-0.037098258191962247 0.035722562882305783 -0.036327765363557314 0.036191319556411992 0.035417958916483791
leaf_weight=4.02762421220541 2.5330932587385178 2.5265245959162712 1.9001758769154546 2.0428200513124466
leaf_count=30 28 23 18 25
internal_value=0 -0.0368012 0.035764 0.0355866
internal_weight=0 6.55415 6.47609 4.57591
internal_count=124 53 71 53
is_linear=0
shrinkage=0.05


Tree=97
num_leaves=4
num_cat=0
split_feature=0 1 11
split_gain=5.35796 0.404752 0.000250213
threshold=1.5000000000000002 32.500000000000007 3.5000000000000004
decision_type=2 2 2
left_child=1 -1 -2
right_child=2 -3 -4
leaf_value=0.037223633005431529 -0.035813455833924299 0.013122619018587425 -0.035149407340045062
leaf_weight=4.6160649284720421 3.6269332468509674 2.7979518920183182 2.3298070132732391
leaf_count=34 39 19 32
internal_value=0 0.0281282 -0.0355537
internal_weight=0 7.41402 5.95674
internal_count=124 53 71
is_linear=0
shrinkage=0.05


Tree=98
num_leaves=6
num_cat=0
split_feature=0 5 7 3 0
split_gain=1.75816 1.46181e-06 4.2423e-07 1.17476e-07 8.03717e-08
threshold=1.0000000180025095e-35 8.5000000000000018 34.500000000000007 198.70731707317051 1.5000000000000002
decision_type=2 2 2 2 2
left_child=-1 2 3 4 -2
right_child=1 -3 -4 -5 -6
leaf_value=0.065914205616624463 -0.033566263917613269 -0.033707679613982931 -0.033609197707386379 -0.033501882767482796 -0.033524014767945476
leaf_weight=0.74960318207740795 0.22760120406746842 0.1749914288520813 0.22706669475883245 0.237070900388062 0.22271556500345469
leaf_count=2 24 13 22 35 28
internal_value=0 -0.0335753 -0.0335499 -0.0335304 -0.0335454
internal_weight=0 1.08945 0.914454 0.687388 0.450317
internal_count=124 122 109 87 52
is_linear=0
shrinkage=0.05


Tree=99
num_leaves=5
num_cat=0
split_feature=11 2 2 4
split_gain=1.8017 0.491385 0.361019 0.130393
threshold=1.5000000000000002 178.50000000000003 191.50000000000003 17.500000000000004
decision_type=2 2 2 2
left_child=1 -1 -3 -2
right_child=3 2 -4 -5
leaf_value=0.0036001054124555234 0.035303758347073569 -0.034243386389683127 -0.0087147207368761578 0.01748815507493072
leaf_weight=2.5901915058493596 2.0024720430374154 3.0737224519252777 2.5205240845680237 2.1084694638848305
leaf_count=25 26 27 24 22
internal_value=0 -0.0144048 -0.0227413 0.0261663
internal_weight=0 8.18444 5.59425 4.11094
internal_count=124 76 51 48
is_linear=0
shrinkage=0.05


Tree=100
num_leaves=5
num_cat=0
split_feature=7 3 2 2
split_gain=2.09972 0.915713 0.621569 0.23594
threshold=25.500000000000004 190.53740702300641 196.50000000000003 183.50000000000003
decision_type=2 2 2 2
left_child=3 -2 -3 -1
right_child=1 2 -4 -5
leaf_value=0.012249059715265163 -0.040021305037484377 0.014858890597890972 -0.022123248826294632 0.033404917313499219
leaf_weight=2.4318462312221527 2.8044925704598427 2.2653496265411377 2.2793962359428406 2.877070777118206
leaf_count=21 32 20 25 26
internal_value=0 -0.0175537 -0.00368933 0.0237141
internal_weight=0 7.34924 4.54475 5.30892
internal_count=124 77 45 47
is_linear=0
shrinkage=0.05


Tree=101
num_leaves=6
num_cat=0
split_feature=0 5 7 3 0
split_gain=1.64525 1.28575e-06 3.53402e-07 9.67624e-08 6.88842e-08
threshold=1.0000000180025095e-35 8.5000000000000018 34.500000000000007 198.70731707317051 1.5000000000000002
decision_type=2 2 2 2 2
left_child=-1 2 3 4 -2
right_child=1 -3 -4 -5 -6
leaf_value=0.063945724135783116 -0.033552331314213792 -0.033688873112311751 -0.033592585037601062 -0.03349173018899676 -0.033511979189540325
leaf_weight=0.74832481145858776 0.21432244172319748 0.16576442355290055 0.21334358397871256 0.22319320542737842 0.20879495702683926
leaf_count=2 24 13 22 35 28
internal_value=0 -0.0335614 -0.0335368 -0.0335184 -0.0335324
internal_weight=0 1.02542 0.859654 0.646311 0.423117
internal_count=124 122 109 87 52
is_linear=0
shrinkage=0.05


Tree=102
num_leaves=4
num_cat=0
split_feature=0 11 8
split_gain=6.1875 0.000252672 0.00024543
threshold=1.5000000000000002 3.5000000000000004 197.00000000000003
decision_type=2 2 2
left_child=2 -2 -1
right_child=1 -3 -4
leaf_value=-0.036729488288043267 0.035800493935907444 0.035129994339420982 -0.03607384497259724
leaf_weight=3.7014146596193314 3.6041897758841515 2.3028231337666512 2.3232684582471848
leaf_count=30 39 32 23
internal_value=0 0.0355391 -0.0364767
internal_weight=0 5.90701 6.02468
internal_count=124 71 53
is_linear=0
shrinkage=0.05


Tree=103
num_leaves=4
num_cat=0
split_feature=0 8 8
split_gain=4.81261 0.377216 0.000117458
threshold=1.5000000000000002 188.14240506329116 188.14240506329116
decision_type=2 2 2
left_child=1 -1 -2
right_child=2 -3 -4
leaf_value=0.012287050678184124 -0.035117469695587558 0.036605040559712899 -0.035582382898755122
leaf_weight=2.5253236442804337 2.6599574014544487 4.3272400349378586 2.7767754644155502
leaf_count=16 38 37 33
internal_value=0 0.0276433 -0.0353549
internal_weight=0 6.85256 5.43673
internal_count=124 53 71
is_linear=0
shrinkage=0.05


Tree=104
num_leaves=7
num_cat=0
split_feature=0 5 7 4 3 0
split_gain=1.51288 1.09469e-06 3.05667e-07 9.13307e-08 1.0625e-07 3.54153e-08
threshold=1.0000000180025095e-35 8.5000000000000018 34.500000000000007 34.500000000000007 198.70731707317051 1.5000000000000002
decision_type=2 2 2 2 2 2
left_child=-1 2 3 4 5 -2
right_child=1 -3 -4 -5 -6 -7
leaf_value=0.061086162157455874 -0.033529790224442794 -0.033671527889129881 -0.033581034084111755 -0.033544514615721638 -0.033461762952221558 -0.033497217882077907
leaf_weight=0.74347668886184692 0.17775323521345854 0.15800512209534645 0.20285556651651859 0.14804600598290563 0.13359855813905597 0.1573003102093935
leaf_count=2 22 13 22 17 25 23
internal_value=0 -0.033551 -0.0335278 -0.0335103 -0.0334995 -0.0335145
internal_weight=0 0.977559 0.819554 0.616698 0.468652 0.335054
internal_count=124 122 109 87 70 45
is_linear=0
shrinkage=0.05


Tree=105
num_leaves=4
num_cat=0
split_feature=0 8 8
split_gain=5.72584 0.000432681 0.000107004
threshold=1.5000000000000002 197.00000000000003 188.14240506329116
decision_type=2 2 2
left_child=1 -1 -2
right_child=2 -3 -4
leaf_value=-0.036843063455836572 0.035157044462441792 -0.035984785677976569 0.03561143232550739
leaf_weight=3.3343462944030762 2.5338270962238312 2.6240346357226372 2.6514301151037216
leaf_count=27 35 27 31
internal_value=0 -0.0364651 0.0353894
internal_weight=0 5.95838 5.18526
internal_count=120 54 66
is_linear=0
shrinkage=0.05


Tree=106
num_leaves=5
num_cat=0
split_feature=0 12 9 7
split_gain=4.40238 0.39788 9.29814e-05 6.11503e-05
threshold=1.5000000000000002 5.5000000000000009 195.00000000000003 30.500000000000004
decision_type=2 2 2 2
left_child=1 -1 3 -2
right_child=2 -3 -4 -5
leaf_value=0.011772311424433369 -0.035244145246039568 0.03671301494531222 -0.035527751107717602 -0.034799310217891108
leaf_weight=2.552387498319149 1.8560145981609824 4.281510703265667 1.5852468945086 1.323479078710079
leaf_count=17 25 37 19 22
internal_value=0 0.0273979 -0.0352149 -0.035059
internal_weight=0 6.8339 4.76474 3.17949
internal_count=120 54 66 47
is_linear=0
shrinkage=0.05


Tree=107
num_leaves=6
num_cat=0
split_feature=0 5 0 3 5
split_gain=1.53623 1.27666e-06 5.39429e-07 4.17344e-07 1.25298e-07
threshold=1.0000000180025095e-35 8.5000000000000018 1.5000000000000002 192.00000000000003 1.0000000180025095e-35
decision_type=2 2 2 2 2
left_child=-1 2 3 -2 -4
right_child=1 -3 4 -5 -6
leaf_value=0.062347292201414509 -0.033644102169383759 -0.0336961017367415 -0.033477773059452161 -0.033538092784766806 -0.033532987734643312
leaf_weight=0.74287813901901245 0.16675571165978909 0.16112348949536681 0.22994812671095133 0.20946033811196685 0.18574696430005133
leaf_count=2 15 12 38 29 24
internal_value=0 -0.0335678 -0.0335417 -0.0335851 -0.0335024
internal_weight=0 0.953035 0.791911 0.376216 0.415695
internal_count=120 118 106 44 62
is_linear=0
shrinkage=0.05


Tree=108
num_leaves=4
num_cat=0
split_feature=0 7 11
split_gain=5.34814 0.000617649 0.000132027
threshold=1.5000000000000002 28.500000000000004 3.5000000000000004
decision_type=2 2 2
left_child=1 -1 -2
right_child=2 -3 -4
leaf_value=-0.035841479397156199 0.035461589523116115 -0.036908237617515306 0.034929718635742991
leaf_weight=3.3686334416270256 2.9334702417254448 2.2721371650695801 1.9373696334660051
leaf_count=36 36 18 30
internal_value=0 -0.0362712 0.03525
internal_weight=0 5.64077 4.87084
internal_count=120 54 66
is_linear=0
shrinkage=0.05


Tree=109
num_leaves=4
num_cat=0
split_feature=0 12 11
split_gain=4.07617 0.388236 0.000122952
threshold=1.5000000000000002 5.5000000000000009 3.5000000000000004
decision_type=2 2 2
left_child=1 -1 -2
right_child=2 -3 -4
leaf_value=0.011322052390131938 -0.035297440707098331 0.036479309710840298 -0.034760084800245603
leaf_weight=2.4748567789793015 2.7279999665915966 4.0322527810931206 1.7457397803664205
leaf_count=17 36 37 30
internal_value=0 0.0269112 -0.0350878
internal_weight=0 6.50711 4.47374
internal_count=120 54 66
is_linear=0
shrinkage=0.05


Tree=110
num_leaves=6
num_cat=0
split_feature=0 5 0 7 5
split_gain=1.43986 1.04153e-06 4.74913e-07 1.05804e-06 1.03513e-07
threshold=1.0000000180025095e-35 8.5000000000000018 1.5000000000000002 28.500000000000004 1.0000000180025095e-35
decision_type=2 2 2 2 2
left_child=-1 2 3 -2 -4
right_child=1 -3 4 -5 -6
leaf_value=0.060699076562743773 -0.033487426942137431 -0.033673671093153654 -0.033468607777733375 -0.033659929976519891 -0.033520441095067348
leaf_weight=0.73902517557144165 0.18199242115952075 0.15161985158920288 0.21547285886481404 0.17375351907685399 0.17418236751109362
leaf_count=2 30 12 38 14 24
internal_value=0 -0.0335542 -0.0335299 -0.0335717 -0.0334918
internal_weight=0 0.897021 0.745401 0.355746 0.389655
internal_count=120 118 106 44 62
is_linear=0
shrinkage=0.05


Tree=111
num_leaves=5
num_cat=0
split_feature=11 3 5 12
split_gain=1.28998 0.476229 0.447739 0.0566345
threshold=3.5000000000000004 200.20731707317051 1.0000000180025095e-35 9.5000000000000018
decision_type=2 2 2 2
left_child=1 2 -1 -4
right_child=-2 -3 3 -5
leaf_value=0.00063693359973874555 0.034822584885702737 0.0068039585818261226 -0.023902638751063642 -0.036101348637269395
leaf_weight=1.833439514040945 1.8183267451822764 2.4174393601715565 2.114770814776421 1.729671388864517
leaf_count=22 30 28 22 18
internal_value=0 -0.0117816 -0.0196947 -0.029391
internal_weight=0 8.09532 5.67788 3.84444
internal_count=120 90 62 40
is_linear=0
shrinkage=0.05


Tree=112
num_leaves=4
num_cat=0
split_feature=0 11 11
split_gain=3.77492 0.341099 9.98336e-05
threshold=1.5000000000000002 1.0000000180025095e-35 3.5000000000000004
decision_type=2 2 2
left_child=1 -1 -2
right_child=2 -3 -4
leaf_value=0.036110254302714466 -0.035164413785136031 0.012209805958712376 -0.034664590581650993
leaf_weight=3.6874756440520287 2.5617474354803562 2.5082575604319572 1.6377339623868463
leaf_count=37 36 17 30
internal_value=0 0.0264345 -0.0349695
internal_weight=0 6.19573 4.19948
internal_count=120 54 66
is_linear=0
shrinkage=0.05


Tree=113
num_leaves=6
num_cat=0
split_feature=0 5 0 7 5
split_gain=1.3505 8.49258e-07 4.18108e-07 8.87491e-07 8.54693e-08
threshold=1.0000000180025095e-35 8.5000000000000018 1.5000000000000002 28.500000000000004 1.0000000180025095e-35
decision_type=2 2 2 2 2
left_child=-1 2 3 -2 -4
right_child=1 -3 4 -5 -6
leaf_value=0.059185404034970482 -0.033479820457065393 -0.033652632510498395 -0.03346001214249246 -0.033642297750289867 -0.033508661627412784
leaf_weight=0.73409527540206909 0.17239840514957905 0.14267023093998432 0.20188485574908555 0.16399645898491144 0.16331117763184011
leaf_count=2 30 12 38 14 24
internal_value=0 -0.0335414 -0.0335188 -0.033559 -0.0334818
internal_weight=0 0.844261 0.701591 0.336395 0.365196
internal_count=120 118 106 44 62
is_linear=0
shrinkage=0.05


Tree=114
num_leaves=4
num_cat=0
split_feature=0 9 11
split_gain=4.76512 0.000255676 0.00011535
threshold=1.5000000000000002 203.50000000000003 3.5000000000000004
decision_type=2 2 2
left_child=1 -1 -2
right_child=2 -3 -4
leaf_value=-0.036287747285262288 0.035249240245470749 -0.035576564142566464 0.034722902134824318
leaf_weight=2.8793272748589516 2.6696773990988731 2.2523486316204071 1.7062287703156469
leaf_count=27 36 27 30
internal_value=0 -0.0359756 0.035044
internal_weight=0 5.13168 4.37591
internal_count=120 54 66
is_linear=0
shrinkage=0.05


Tree=115
num_leaves=5
num_cat=0
split_feature=7 9 12 7
split_gain=1.23237 0.800477 0.473867 0.0891068
threshold=30.500000000000004 200.20731707317051 1.5000000000000002 23.500000000000004
decision_type=2 2 2 2
left_child=2 -2 -1 -4
right_child=1 -3 3 -5
leaf_value=-0.0048873197834129866 -0.039885787430911875 0.0055116294858780423 0.032670048857711291 0.018003457341596401
leaf_weight=1.8984777480363844 2.229948535561562 1.71996184438467 2.0548797696828842 2.0877860449254513
leaf_count=24 32 17 24 23
internal_value=0 -0.0201178 0.0157987 0.0252785
internal_weight=0 3.94991 6.04114 4.14267
internal_count=120 49 71 47
is_linear=0
shrinkage=0.05


Tree=116
num_leaves=6
num_cat=0
split_feature=0 5 0 7 5
split_gain=1.27522 7.05071e-07 3.51766e-07 7.80719e-07 7.60988e-08
threshold=1.0000000180025095e-35 8.5000000000000018 1.5000000000000002 28.500000000000004 1.0000000180025095e-35
decision_type=2 2 2 2 2
left_child=-1 2 3 -2 -4
right_child=1 -3 4 -5 -6
leaf_value=0.057867597930218721 -0.033470828858317946 -0.033635083139735643 -0.033453962221766408 -0.033627551991417204 -0.03350093098524129
leaf_weight=0.72856670618057251 0.16192145668901503 0.13481385167688131 0.19232613104395568 0.15604187501594424 0.15634062793105841
leaf_count=2 30 12 38 14 24
internal_value=0 -0.0335308 -0.0335097 -0.0335477 -0.033475
internal_weight=0 0.801444 0.66663 0.317963 0.348667
internal_count=120 118 106 44 62
is_linear=0
shrinkage=0.05


Tree=117
num_leaves=4
num_cat=0
split_feature=0 7 11
split_gain=4.52805 0.000430092 0.000116095
threshold=1.5000000000000002 28.500000000000004 3.5000000000000004
decision_type=2 2 2
left_child=1 -1 -2
right_child=2 -3 -4
leaf_value=-0.035457790697183765 0.035180154092071252 -0.036410371883293227 0.034638687364274418
leaf_weight=2.8931752629578114 2.5770070292055607 2.0068985298275948 1.6074348501861093
leaf_count=36 36 18 30
internal_value=0 -0.0358479 0.0349722
internal_weight=0 4.90007 4.18444
internal_count=120 54 66
is_linear=0
shrinkage=0.05


Tree=118
num_leaves=4
num_cat=0
split_feature=0 12 11
split_gain=3.40984 0.354874 0.00010556
threshold=1.5000000000000002 5.5000000000000009 3.5000000000000004
decision_type=2 2 2
left_child=1 -1 -2
right_child=2 -3 -4
leaf_value=0.010485010145811331 -0.035043107842367159 0.036008956372787664 -0.034502451304591612
leaf_weight=2.234951376914978 2.3996628858149056 3.485833153128624 1.4473256841301916
leaf_count=17 36 37 30
internal_value=0 0.0260375 -0.0348397
internal_weight=0 5.72078 3.84699
internal_count=120 54 66
is_linear=0
shrinkage=0.05


Tree=119
num_leaves=5
num_cat=0
split_feature=12 5 6 5
split_gain=0.794184 7.05894e-07 1.64558e-07 1.03406e-07
threshold=1.0000000180025095e-35 8.5000000000000018 12.500000000000002 1.5000000000000002
decision_type=2 2 2 2
left_child=-1 2 -2 -4
right_child=1 -3 3 -5
leaf_value=0.040869507474672856 -0.033458077735530049 -0.033629460016394129 -0.033490424804424206 -0.033548504350727239
leaf_weight=0.85792059684172273 0.18699155445210636 0.12176084332168102 0.16412825719453394 0.14376563299447298
leaf_count=23 39 11 28 19
internal_value=0 -0.0335216 -0.0334951 -0.0335175
internal_weight=0 0.616646 0.494885 0.307894
internal_count=120 97 86 47
is_linear=0
shrinkage=0.05


Tree=120
num_leaves=4
num_cat=0
split_feature=0 7 5
split_gain=4.13368 0.000260429 6.29694e-05
threshold=1.5000000000000002 24.500000000000004 1.0000000180025095e-35
decision_type=2 2 2
left_child=1 -1 -2
right_child=2 -3 -4
leaf_value=-0.035270013960907336 0.034681932360595039 -0.036055027997175991 0.035085635421599363
leaf_weight=2.580727256834507 1.665480472147465 1.7888319864869116 2.2996721304953098
leaf_count=35 31 18 34
internal_value=0 -0.0355914 0.0349161
internal_weight=0 4.36956 3.96515
internal_count=118 53 65
is_linear=0
shrinkage=0.05


Tree=121
num_leaves=4
num_cat=0
split_feature=0 12 11
split_gain=3.54839 0.0843541 0.00011625
threshold=1.5000000000000002 5.5000000000000009 3.5000000000000004
decision_type=2 2 2
left_child=1 -1 -2
right_child=2 -3 -4
leaf_value=0.022185444070435222 -0.035031064189831415 0.035654774842132787 -0.034459788277701991
leaf_weight=1.896699324250221 2.0641518644988541 3.0024579726159573 1.566203288733959
leaf_count=17 31 36 34
internal_value=0 0.0304401 -0.0347846
internal_weight=0 4.89916 3.63036
internal_count=118 53 65
is_linear=0
shrinkage=0.05


Tree=122
num_leaves=5
num_cat=0
split_feature=0 7 2 3
split_gain=0.677253 6.77305e-07 5.40279e-07 7.24517e-08
threshold=1.0000000180025095e-35 29.500000000000004 193.50000000000003 190.53740702300641
decision_type=2 2 2 2
left_child=-1 3 -3 -2
right_child=1 2 -4 -5
leaf_value=0.05194810362546002 -0.033479551581128607 -0.033601833212522685 -0.033480809155570709 -0.033430848410777654
leaf_weight=0.3448961079120636 0.17688232450746 0.24952980037778616 0.14627682231366634 0.13437014305964112
leaf_count=1 29 27 28 33
internal_value=0 -0.0335137 -0.0335571 -0.0334585
internal_weight=0 0.707059 0.395807 0.311252
internal_count=118 117 55 62
is_linear=0
shrinkage=0.05


Tree=123
num_leaves=4
num_cat=0
split_feature=11 3 8
split_gain=1.11357 0.659183 0.256185
threshold=3.5000000000000004 200.20731707317051 191.50000000000003
decision_type=2 2 2
left_child=1 2 -1
right_child=-2 -3 -4
leaf_value=-0.010888792574097162 0.034516321916576234 0.013132721048544653 -0.035197250278092791
leaf_weight=2.2770933732390404 1.640730697661638 1.8567130453884599 2.0684301964938641
leaf_count=28 34 27 29
internal_value=0 -0.0118045 -0.0224594
internal_weight=0 6.20224 4.34552
internal_count=118 84 57
is_linear=0
shrinkage=0.05


Tree=124
num_leaves=4
num_cat=0
split_feature=0 4 11
split_gain=3.29444 0.0993499 9.46493e-05
threshold=1.5000000000000002 23.500000000000004 3.5000000000000004
decision_type=2 2 2
left_child=1 -1 -2
right_child=2 -3 -4
leaf_value=0.035698887093376271 -0.034917054951085394 0.020559653120200149 -0.03438480511137295
leaf_weight=2.9142656400799751 1.9377092011272909 1.7251935862004755 1.4681141041219232
leaf_count=35 31 18 34
internal_value=0 0.0300693 -0.0346876
internal_weight=0 4.63946 3.40582
internal_count=118 53 65
is_linear=0
shrinkage=0.05


Tree=125
num_leaves=5
num_cat=0
split_feature=0 5 3 6
split_gain=0.647178 3.26408e-07 2.57818e-07 7.72046e-08
threshold=1.0000000180025095e-35 8.5000000000000018 190.53740702300641 12.500000000000002
decision_type=2 2 2 2
left_child=-1 2 -2 -4
right_child=1 -3 3 -5
leaf_value=0.051235928757503824 -0.03352161590137534 -0.033576195272734581 -0.033414861801961002 -0.03347101778517627
leaf_weight=0.34098619222640991 0.26332558272406459 0.12380396900698543 0.091259232256561518 0.18585328967310488
leaf_count=1 40 14 27 36
internal_value=0 -0.033503 -0.0334862 -0.0334525
internal_weight=0 0.664242 0.540438 0.277113
internal_count=118 117 103 63
is_linear=0
shrinkage=0.05


Tree=126
num_leaves=4
num_cat=0
split_feature=0 7 11
split_gain=3.66989 0.000181735 0.000101354
threshold=1.5000000000000002 24.500000000000004 3.5000000000000004
decision_type=2 2 2
left_child=1 -1 -2
right_child=2 -3 -4
leaf_value=-0.035069040309952879 0.034977099085670038 -0.035759346651101101 0.034437838105253187
leaf_weight=2.3271507211029534 2.0090762078762059 1.6151978224515913 1.5386299304664133
leaf_count=35 31 18 34
internal_value=0 -0.0353519 0.0347432
internal_weight=0 3.94235 3.54771
internal_count=118 53 65
is_linear=0
shrinkage=0.05


Tree=127
num_leaves=4
num_cat=0
split_feature=0 5 11
split_gain=3.11653 0.0965594 9.30998e-05
threshold=1.5000000000000002 4.5000000000000009 3.5000000000000004
decision_type=2 2 2
left_child=1 -1 -2
right_child=2 -3 -4
leaf_value=0.035668149466847938 -0.034856984202944641 0.020539988553299728 -0.034315196567120253
leaf_weight=2.7241269908845425 1.870696656405926 1.7212482988834379 1.3762783184647558
leaf_count=33 31 20 34
internal_value=0 0.0298105 -0.0346273
internal_weight=0 4.44538 3.24697
internal_count=118 53 65
is_linear=0
shrinkage=0.05


Tree=128
num_leaves=5
num_cat=0
split_feature=0 7 2 3
split_gain=0.620958 4.58554e-07 3.68919e-07 5.36162e-08
threshold=1.0000000180025095e-35 29.500000000000004 193.50000000000003 190.53740702300641
decision_type=2 2 2 2
left_child=-1 3 -3 -2
right_child=1 2 -4 -5
leaf_value=0.050611814400054148 -0.033464354647095955 -0.033570773397334601 -0.033464629411671706 -0.03341996727987312
leaf_weight=0.33726540207862854 0.15862536244094372 0.2202761743683368 0.1302763600833714 0.11912329611368477
leaf_count=1 29 27 28 33
internal_value=0 -0.0334933 -0.0335313 -0.0334453
internal_weight=0 0.628301 0.350553 0.277749
internal_count=118 117 55 62
is_linear=0
shrinkage=0.05


Tree=129
num_leaves=4
num_cat=0
split_feature=0 8 11
split_gain=3.42976 0.00014223 8.2396e-05
threshold=1.5000000000000002 197.00000000000003 3.5000000000000004
decision_type=2 2 2
left_child=1 -1 -2
right_child=2 -3 -4
leaf_value=-0.035504712335245214 0.034866716286204906 -0.034883578375435841 0.034364693583387972
leaf_weight=2.0314830876886849 1.8856510855257513 1.6869944259524343 1.4426478706300256
leaf_count=25 31 28 34
internal_value=0 -0.0352229 0.0346491
internal_weight=0 3.71848 3.3283
internal_count=118 53 65
is_linear=0
shrinkage=0.05


Tree=130
num_leaves=4
num_cat=0
split_feature=0 6 11
split_gain=2.89387 0.104719 7.57147e-05
threshold=1.5000000000000002 13.625000000000002 3.5000000000000004
decision_type=2 2 2
left_child=1 -1 -2
right_child=2 -3 -4
leaf_value=0.035422361485164547 -0.03475486253140788 0.01904186341622147 -0.03425030761963116
leaf_weight=2.6736910082399845 1.7552035264670851 1.5363291315734384 1.2900113761425016
leaf_count=36 31 17 34
internal_value=0 0.0294448 -0.0345411
internal_weight=0 4.21002 3.04521
internal_count=118 53 65
is_linear=0
shrinkage=0.05


Tree=131
num_leaves=5
num_cat=0
split_feature=0 7 2 3
split_gain=0.593068 3.84177e-07 3.12109e-07 4.42775e-08
threshold=1.0000000180025095e-35 29.500000000000004 193.50000000000003 192.00000000000003
decision_type=2 2 2 2
left_child=-1 3 -3 -2
right_child=1 2 -4 -5
leaf_value=0.04996150742024541 -0.033454216689356164 -0.033557169840067867 -0.03345637656351181 -0.033411477348588889
leaf_weight=0.3330761194229126 0.16556128766387701 0.20707884035073221 0.12208354752510786 0.095586136449128389
leaf_count=1 33 27 28 29
internal_value=0 -0.0334839 -0.0335198 -0.0334386
internal_weight=0 0.59031 0.329162 0.261147
internal_count=118 117 55 62
is_linear=0
shrinkage=0.05


Tree=132
num_leaves=4
num_cat=0
split_feature=0 8 11
split_gain=3.20628 0.000113184 6.70161e-05
threshold=1.5000000000000002 197.00000000000003 3.5000000000000004
decision_type=2 2 2
left_child=1 -1 -2
right_child=2 -3 -4
leaf_value=-0.035363543228301646 0.034764020756764651 -0.034793029310426202 0.034296511041252753
leaf_weight=1.9140458479523661 1.7694232948124411 1.59276607632637 1.3524523638188837
leaf_count=25 31 28 34
internal_value=0 -0.0351044 0.0345615
internal_weight=0 3.50681 3.12188
internal_count=118 53 65
is_linear=0
shrinkage=0.05


Tree=133
num_leaves=4
num_cat=0
split_feature=0 6 11
split_gain=2.68754 0.104223 6.1604e-05
threshold=1.5000000000000002 13.625000000000002 3.5000000000000004
decision_type=2 2 2
left_child=1 -1 -2
right_child=2 -3 -4
leaf_value=0.035282087855576565 -0.034659828243223396 0.018537995009720708 -0.034189803385958194
leaf_weight=2.5115150846540932 1.6465181186795237 1.4752518385648725 1.2089979238808153
leaf_count=36 31 17 34
internal_value=0 0.0290862 -0.0344608
internal_weight=0 3.98677 2.85552
internal_count=118 53 65
is_linear=0
shrinkage=0.05


Tree=134
num_leaves=5
num_cat=0
split_feature=0 7 2 3
split_gain=0.566048 3.21773e-07 2.57648e-07 3.59933e-08
threshold=1.0000000180025095e-35 29.500000000000004 193.50000000000003 192.00000000000003
decision_type=2 2 2 2
left_child=-1 3 -3 -2
right_child=1 2 -4 -5
leaf_value=0.049332197208454713 -0.033446686843632438 -0.033543838096905795 -0.033449370417995207 -0.033406939521324237
leaf_weight=0.32869887351989746 0.1552973894868046 0.19457662687636912 0.11473932513035834 0.089944917242974043
leaf_count=1 33 27 28 29
internal_value=0 -0.0334749 -0.0335088 -0.0334321
internal_weight=0 0.554558 0.309316 0.245242
internal_count=118 117 55 62
is_linear=0
shrinkage=0.05


Tree=135
num_leaves=4
num_cat=0
split_feature=0 7 11
split_gain=3.06408 0.000135525 2.66149e-05
threshold=1.5000000000000002 28.500000000000004 3.5000000000000004
decision_type=2 2 2
left_child=1 -1 -2
right_child=2 -3 -4
leaf_value=-0.03478343912738207 0.034556321190845861 -0.035419109763136107 0.034242228465062113
leaf_weight=2.0407693125307564 1.8728306181728842 1.4232604913413522 1.0540295168757436
leaf_count=36 38 18 28
internal_value=0 -0.0350446 0.0344432
internal_weight=0 3.46403 2.92686
internal_count=120 54 66
is_linear=0
shrinkage=0.05


Tree=136
num_leaves=5
num_cat=0
split_feature=0 7 11 2
split_gain=1.77239 0.789589 2.53335e-05 1.78e-05
threshold=1.5000000000000002 29.500000000000004 3.5000000000000004 187.65819209039549
decision_type=2 2 2 2
left_child=1 3 -2 -1
right_child=2 -3 -4 -5
leaf_value=0.035126044355394348 -0.034464033165674111 -0.0075033615448676554 -0.034141916912697905 0.034863853107235963
leaf_weight=1.2628783918917181 1.7365203723311426 1.8908629640936849 0.94124239496886719 1.3280690759420393
leaf_count=18 38 13 28 23
internal_value=0 0.0170631 -0.0343508 0.0349917
internal_weight=0 4.48181 2.67776 2.59095
internal_count=120 54 66 41
is_linear=0
shrinkage=0.05


Tree=137
num_leaves=5
num_cat=0
split_feature=0 7 2 8
split_gain=1.01353 1.99453e-07 1.87041e-07 1.83448e-08
threshold=1.0000000180025095e-35 29.500000000000004 193.50000000000003 191.50000000000003
decision_type=2 2 2 2
left_child=-1 3 -3 -2
right_child=1 2 -4 -5
leaf_value=0.052062107922631086 -0.033440095358441384 -0.033521378612391094 -0.033438346149760621 -0.033410452625237619
leaf_weight=1.0289558768272398 0.14499960618559282 0.19024042249657214 0.10540076508186758 0.081546572037041187
leaf_count=3 33 30 28 26
internal_value=0 -0.0334647 -0.0334918 -0.0334294
internal_weight=0 0.522187 0.295641 0.226546
internal_count=120 117 58 59
is_linear=0
shrinkage=0.05


Tree=138
num_leaves=4
num_cat=0
split_feature=0 7 8
split_gain=2.87324 0.000134441 1.15335e-05
threshold=1.5000000000000002 28.500000000000004 188.14240506329116
decision_type=2 2 2
left_child=1 -1 -2
right_child=2 -3 -4
leaf_value=-0.034686388957768932 0.034271521396492886 -0.035335471543247482 0.034476723178570888
leaf_weight=1.9142331257462504 1.4316083900630476 1.3677930012345312 1.3125995900481937
leaf_count=36 37 18 29
internal_value=0 -0.0349569 0.0343697
internal_weight=0 3.28203 2.74421
internal_count=120 54 66
is_linear=0
shrinkage=0.05


Tree=139
num_leaves=5
num_cat=0
split_feature=0 7 2 8
split_gain=1.64565 0.743666 1.44869e-05 1.05324e-05
threshold=1.5000000000000002 29.500000000000004 187.65819209039549 188.14240506329116
decision_type=2 2 2 2
left_child=1 2 -1 -2
right_child=3 -3 -4 -5
leaf_value=0.03500557666406439 -0.034184515931387362 -0.0071891573187893082 0.034761424859434134 -0.034389479782968989
leaf_weight=1.1858452931046488 1.2978889495134356 1.8493312150239942 1.2459081821143625 1.2121424581855533
leaf_count=18 37 13 23 29
internal_value=0 0.0167074 0.0348805 -0.0342835
internal_weight=0 4.28108 2.43175 2.51003
internal_count=120 54 41 66
is_linear=0
shrinkage=0.05


Tree=140
num_leaves=6
num_cat=0
split_feature=0 7 0 2 8
split_gain=0.943733 1.92319e-07 5.50328e-07 2.70714e-08 1.51212e-08
threshold=1.0000000180025095e-35 29.500000000000004 1.5000000000000002 191.50000000000003 191.50000000000003
decision_type=2 2 2 2 2
left_child=-1 4 -3 -4 -2
right_child=1 2 3 -5 -6
leaf_value=0.05093110502993399 -0.033433372314436709 -0.033584036290130327 -0.033452989071245103 -0.033414447902921855 -0.033405567045126872
leaf_weight=1.0098918974399564 0.13587823894340556 0.09536811476573348 0.10475713899359107 0.080630016047507524 0.076382206636480987
leaf_count=3 33 10 22 26 26
internal_value=0 -0.0334593 -0.0334864 -0.0334362 -0.0334234
internal_weight=0 0.493016 0.280755 0.185387 0.21226
internal_count=120 117 58 48 59
is_linear=0
shrinkage=0.05


Tree=141
num_leaves=4
num_cat=0
split_feature=0 7 11
split_gain=2.69493 0.000132644 1.76988e-05
threshold=1.5000000000000002 28.500000000000004 3.5000000000000004
decision_type=2 2 2
left_child=1 -1 -2
right_child=2 -3 -4
leaf_value=-0.034596055491761667 0.034399475169270603 -0.035257102238812663 0.034126213643034788
leaf_weight=1.7952246479690077 1.6470582671463492 1.3145309872925279 0.92552270740270604
leaf_count=36 38 18 28
internal_value=0 -0.0348755 0.0343012
internal_weight=0 3.10976 2.57258
internal_count=120 54 66
is_linear=0
shrinkage=0.05


Tree=142
num_leaves=4
num_cat=0
split_feature=0 11 11
split_gain=1.52823 0.704558 1.68537e-05
threshold=1.5000000000000002 1.0000000180025095e-35 3.5000000000000004
decision_type=2 2 2
left_child=1 -1 -2
right_child=2 -3 -4
leaf_value=0.034889780638140792 -0.034319229596735876 -0.0068839895783750953 -0.034038855167776126
leaf_weight=2.2753766849637032 1.5264530889689925 1.8141193874180315 0.82604770176112641
leaf_count=39 38 15 28
internal_value=0 0.0163587 -0.0342208
internal_weight=0 4.0895 2.3525
internal_count=120 54 66
is_linear=0
shrinkage=0.05


Tree=143
num_leaves=5
num_cat=0
split_feature=5 7 5 1
split_gain=0.412303 0.0360978 3.72694e-08 7.0272e-09
threshold=2.5000000000000004 33.500000000000007 1.0000000180025095e-35 26.500000000000004
decision_type=2 2 2 2
left_child=2 -2 3 -1
right_child=1 -3 -4 -5
leaf_value=-0.033407293058945658 0.025134282419281968 0.042872861564731073 -0.033455148143797839 -0.033428940558790504
leaf_weight=0.083052078494802228 0.48006263212300815 0.71242279931902885 0.11159974709153175 0.068335520336404443
leaf_count=27 35 10 29 19
internal_value=0 0.0357318 -0.0334332 -0.0334171
internal_weight=0 1.19249 0.262987 0.151388
internal_count=120 45 75 46
is_linear=0
shrinkage=0.05


Tree=144
num_leaves=4
num_cat=0
split_feature=0 7 11
split_gain=2.53185 0.000121575 1.43333e-05
threshold=1.5000000000000002 28.500000000000004 3.5000000000000004
decision_type=2 2 2
left_child=1 -1 -2
right_child=2 -3 -4
leaf_value=-0.034519717360983991 0.034330892892354671 -0.035168952232845156 0.034077191491249319
leaf_weight=1.6924628466367724 1.5465373657643797 1.2563443295657633 0.86985455080866803
leaf_count=36 38 18 28
internal_value=0 -0.0347963 0.0342396
internal_weight=0 2.94881 2.41639
internal_count=120 54 66
is_linear=0
shrinkage=0.05


Tree=145
num_leaves=5
num_cat=0
split_feature=0 7 11 6
split_gain=1.41603 0.679774 1.37365e-05 9.03133e-06
threshold=1.5000000000000002 29.500000000000004 3.5000000000000004 12.500000000000002
decision_type=2 2 2 2
left_child=1 3 -2 -1
right_child=2 -3 -4 -5
leaf_value=0.034597614984340629 -0.034253991525409984 -0.0071787424676024994 -0.033992487761191265 0.034801990989085256
leaf_weight=1.0820361860096461 1.4306646455079319 1.7559350878000257 0.77379436790943135 1.0801451429724691
leaf_count=22 38 13 28 19
internal_value=0 0.0159315 -0.0341622 0.0346997
internal_weight=0 3.91812 2.20446 2.16218
internal_count=120 54 66 41
is_linear=0
shrinkage=0.05


Tree=146
num_leaves=6
num_cat=0
split_feature=0 5 0 3 5
split_gain=0.84161 1.84947e-07 9.4598e-08 1.34906e-07 1.55743e-08
threshold=1.0000000180025095e-35 8.5000000000000018 1.5000000000000002 192.00000000000003 1.0000000180025095e-35
decision_type=2 2 2 2 2
left_child=-1 2 3 -2 -4
right_child=1 -3 4 -5 -6
leaf_value=0.049145855853429475 -0.033509950006021333 -0.033516976892644143 -0.033399973434289909 -0.033421789705424233 -0.033429199885599628
leaf_weight=0.97377657890319824 0.082922981353476644 0.091331767849624157 0.1061430461704731 0.091029148898087442 0.079891061177477241
leaf_count=3 14 14 38 29 22
internal_value=0 -0.0334534 -0.0334373 -0.0334638 -0.0334125
internal_weight=0 0.451318 0.359986 0.173952 0.186034
internal_count=120 117 103 43 60
is_linear=0
shrinkage=0.05


Tree=147
num_leaves=4
num_cat=0
split_feature=0 7 11
split_gain=2.37564 0.000118819 1.16831e-05
threshold=1.5000000000000002 28.500000000000004 3.5000000000000004
decision_type=2 2 2
left_child=1 -1 -2
right_child=2 -3 -4
leaf_value=-0.034440917385346791 0.034264970844463338 -0.035099097956486164 0.034028358884566033
leaf_weight=1.5867976825684311 1.4496852736920121 1.2074954248964784 0.81500012613832939
leaf_count=36 38 18 28
internal_value=0 -0.0347253 0.0341798
internal_weight=0 2.79429 2.26469
internal_count=120 54 66
is_linear=0
shrinkage=0.05


Tree=148
num_leaves=5
num_cat=0
split_feature=0 3 9 10
split_gain=1.31548 0.523024 4.68391e-06 3.58698e-06
threshold=1.5000000000000002 190.53740702300641 197.00000000000003 9.5000000000000018
decision_type=2 2 2 2
left_child=1 -1 3 -2
right_child=2 -3 -4 -5
leaf_value=-0.0026596479917362038 -0.034142218220979799 0.03473113930368979 -0.03421160896276753 -0.033978848437121359
leaf_weight=1.9153011888265612 0.61597997695207618 1.8277861028909681 0.71046632155776013 0.73917622119188309
leaf_count=19 19 35 20 27
internal_value=0 0.0155986 -0.0341076 -0.0340531
internal_weight=0 3.74309 2.06562 1.35516
internal_count=120 54 66 46
is_linear=0
shrinkage=0.05


Tree=149
num_leaves=5
num_cat=0
split_feature=7 3 7 3
split_gain=0.361661 0.0565847 1.55752e-07 1.30832e-08
threshold=30.500000000000004 187.50000000000003 28.500000000000004 190.53740702300641
decision_type=2 2 2 2
left_child=2 -2 3 -1
right_child=1 -3 -4 -5
leaf_value=-0.033417495283590448 0.044464186858574159 0.02205466680006159 -0.033491384679225987 -0.033386899061913451
leaf_weight=0.097004722105339281 0.64043149165809132 0.50288313033524901 0.083892121911048889 0.054609159822575748
leaf_count=28 7 43 18 24
internal_value=0 0.0346074 -0.0334367 -0.0334065
internal_weight=0 1.14331 0.235506 0.151614
internal_count=120 50 70 52
is_linear=0
shrinkage=0.05


Tree=150
num_leaves=4
num_cat=0
split_feature=0 8 11
split_gain=2.29746 4.80462e-05 1.2652e-05
threshold=1.5000000000000002 197.00000000000003 3.5000000000000004
decision_type=2 2 2
left_child=1 -1 -2
right_child=2 -3 -4
leaf_value=-0.034851270017283602 0.034235878556476196 -0.034427107593986254 0.033987825131220721
leaf_weight=1.5463648512959483 1.3636259529739621 1.1748665813356636 0.8250982742756604
leaf_count=27 37 28 30
internal_value=0 -0.0346681 0.0341424
internal_weight=0 2.72123 2.18872
internal_count=122 55 67
is_linear=0
shrinkage=0.05


Tree=151
num_leaves=4
num_cat=0
split_feature=0 13 11
split_gain=1.55134 0.415366 1.2295e-05
threshold=1.5000000000000002 7.5000000000000009 5.0000000000000009
decision_type=2 2 2
left_child=1 -1 -2
right_child=2 -3 -4
leaf_value=0.034876836192445748 -0.03415843144516259 -0.0014736938483111478 -0.033894963762849027
leaf_weight=2.1526298504322772 1.3154071457684038 1.237729202955961 0.66750700399279583
leaf_count=39 39 16 28
internal_value=0 0.0216062 -0.0340697
internal_weight=0 3.39036 1.98291
internal_count=122 55 67
is_linear=0
shrinkage=0.05


Tree=152
num_leaves=6
num_cat=0
split_feature=0 7 0 5 8
split_gain=0.640382 2.06115e-07 3.56125e-07 7.49519e-08 8.04082e-09
threshold=1.0000000180025095e-35 29.500000000000004 1.5000000000000002 2.5000000000000004 191.50000000000003
decision_type=2 2 2 2 2
left_child=-1 4 -3 -4 -2
right_child=1 2 3 -5 -6
leaf_value=0.046550288033571988 -0.033412177636676463 -0.033553671980892215 -0.033394578030192537 -0.033464365352706457 -0.03339007490918585
